1024 182
532 0.0355632 -0.110505 0.0177571 -0.00709829 -0.0339195 -0.0626984 0.0146967 -0.0222005 -0.00851588 0.064063 -0.0247837 -0.0109337 0.0342002 -0.0408469 -0.00960763 -0.0339225 0.10291 -0.00513583 -0.00282154 0.0291699 0.0307543 0.0529428 0.0381319 -0.0519343 -0.00714959 0.214037 0.0438313 0.0137325 -0.0662851 -0.00838574 -0.0564282 0.00897852 0.0292597 -0.0715031 -0.105377 0.0738834 -0.00259549 -0.0706108 0.00239285 0.0332786 -0.00338271 0.167169 0.0245373 0.0188997 0.078898 0.0849529 0.103291 0.03866 0.0347261 -0.0866902 0.0361278 -0.258073 -0.0136259 0.00531691 0.129052 -0.0276356 0.164005 -0.17567 -0.0594322 0.0225055 0.0108807 0.0435755 0.0842222 0.0609899 0.0448055 0.0224928 0.0342207 -0.169807 0.0389051 0.0782687 -0.0925409 0.0595418 0.232815 -0.132652 -0.0098571 -0.0370521 0.0733581 -0.142039 0.0892602 0.00383321 -0.0116987 -0.277124 -0.153408 -0.237264 -0.145801 -0.0294615 0.0242342 0.107597 0.247827 -0.245249 -0.00851859 -0.188491 0.444836 0.309146 -0.147805 -0.0616798 0.0332069 -0.315488 0.0778771 -0.117238 0.0758293 0.140643 -0.160093 -0.0275266 0.269238 -0.0607873 0.296196 -0.118625 -0.165392 0.10748 0.390781 -0.170665 -0.413498 -0.411197 0.434655 -0.22874 0.319198 0.0768159 0.158302 -0.245297 -0.00384868 -0.128754 0.0207946 0.395837 -0.0526367 -0.173529 0.26946 0.114458 0.155307 0.108221 -0.23448 -0.59854 -0.0418188 0.0631887 0.174599 -0.766154 -0.20006 0.566465 -0.301871 0.273112 -0.13789 0.253327 -0.331417 0.277645 0.340777 0.259128 0.676331 0.254858 0.017008 0.454267 -0.218593 -0.400693 -0.273967 -0.19136 0.0822649 -0.315731 0.0606614 -0.143307 -0.0399598 0.04268 -0.091454 -0.312155 0.0878305 -0.0890236 0.0367851 0.212909 -0.314322 0.0134526 0.392314 0.174387 0.178279 -0.131278 -0.247974 0.0839962 -0.0788338 -0.272541 -0.00652224 0.000183434 -0.308074 0.289096 0.28817 0.00469104
388 -0.0925387 0.043332 -0.0247713 0.0296132 -0.0579887 0.0699998 -0.0606064 -0.0609671 -0.0270808 0.0415858 -0.0243549 0.0270321 -0.0205634 -0.134109 0.0301477 -0.0410907 0.235211 -0.0535377 0.00937531 -0.0372306 0.00787651 0.0358227 0.0921672 -0.0224737 -0.00851202 0.229858 0.0310555 0.0396574 -0.0398171 0.0450382 0.00155572 -0.011028 0.0082255 -0.0832992 -0.0993987 -0.000263929 0.0252513 0.014653 0.0127242 0.0293998 -0.0281051 0.111213 -0.0252605 -0.0180727 0.0524422 0.0602199 0.221652 0.0632394 0.0441732 -0.0980515 0.0987999 -0.343196 -0.0835019 0.0186164 0.150168 -0.0724655 0.182365 -0.197398 -0.152898 -0.100781 0.120074 0.0759618 0.182389 0.0824916 0.0582589 0.00638983 0.043208 -0.198676 0.0817062 0.195222 -0.175956 0.0663004 0.257353 -0.132265 0.0164272 -0.0560257 -0.00716756 -0.244205 0.148829 -0.0253882 -0.0190452 -0.259639 -0.197279 -0.213791 -0.143584 -0.0239982 0.0216522 0.111156 0.252173 -0.239243 0.0290448 -0.220099 0.481854 0.27884 -0.211877 -0.0470885 0.0769846 -0.45767 0.0705817 -0.0861533 0.114253 0.14901 -0.135997 -0.0315757 0.240338 -0.029133 0.329209 -0.102668 -0.105782 0.126524 0.346669 -0.18754 -0.373735 -0.400488 0.417795 -0.244005 0.413014 0.0678188 0.10351 -0.28079 0.0156531 -0.119836 0.0622777 0.471285 -0.0729782 -0.239857 0.39072 0.164368 0.177284 0.11635 -0.249058 -0.629026 -0.0336585 0.0509369 0.172016 -0.571308 -0.167678 0.509077 -0.343841 0.277609 -0.0956948 0.246817 -0.273664 0.224153 0.37806 0.242925 0.733369 0.28712 0.0407304 0.644129 -0.297247 -0.427105 -0.260583 -0.245566 0.149419 -0.525261 0.114678 -0.21743 -0.11284 0.00952387 -0.088703 -0.546955 0.0938721 -0.0701843 0.0645117 0.306501 -0.275222 0.0113827 0.293226 0.217566 0.191354 -0.109443 -0.185169 0.0850586 -0.122873 -0.27759 0.0474363 0.0327368 -0.326784 0.281376 0.346133 0.0146779
405 -0.141417 0.105576 -0.0671656 0.030154 0.0528164 -0.0424236 0.0334132 -0.00177089 0.0224823 -0.0136165 -0.03029 0.0416866 0.025164 0.0459995 0.0224715 -0.063755 -0.158754 -0.00851703 -0.0192129 0.129473 -0.0714563 -0.054753 0.081191 -0.0538278 0.0505233 0.119293 -0.0129135 0.000634105 -0.00278365 0.0970574 -0.0664204 -0.00215997 0.0795772 -0.0574978 -0.0773145 0.0741521 -0.0240365 0.00208189 0.0591476 0.0397106 -0.00895662 0.0491352 0.0110669 0.0140723 0.0435103 0.00151389 0.00168571 -0.0178256 0.00313351 -0.0568662 0.0416759 -0.217688 0.00371287 0.00306887 0.0593429 -0.041724 0.131573 -0.170173 -0.136611 -0.074434 0.0996185 0.0646772 0.0765094 0.0485861 0.0243955 0.00893635 0.0411814 -0.176388 0.0649065 0.117405 -0.152427 0.0703213 0.198622 -0.0913075 0.00752025 -0.0123767 -0.0187018 -0.134874 0.00304412 -0.0321898 -0.0467602 -0.284197 -0.191101 -0.235126 -0.132497 -0.0459911 0.0477252 0.124063 0.260017 -0.258151 -0.00869425 -0.202004 0.300166 0.174382 -0.151959 -0.0187635 0.0302172 -0.466097 0.0234393 -0.108058 0.0555434 0.124995 -0.21655 -0.0605927 0.252898 -0.125982 0.368119 -0.148052 -0.0769429 0.0287305 0.285011 -0.118305 -0.462002 -0.378607 0.329955 -0.179379 0.375892 0.0229501 0.179165 -0.373559 -0.0332201 -0.164426 -0.0142846 0.405206 -0.0444845 -0.206221 0.41064 0.137919 0.174381 0.117559 -0.17735 -0.477142 -0.0307647 0.0325137 0.186053 -0.817918 -0.195806 0.599648 -0.33954 0.30156 -0.112694 0.205817 -0.204009 0.232669 0.364045 0.258202 0.500185 0.181842 -0.0173407 0.404067 -0.341303 -0.47502 -0.276395 -0.183554 0.123514 -0.422475 0.146128 -0.149138 -0.066287 0.0200056 -0.0553392 -0.311908 0.0430851 -0.0535287 0.0494966 0.201158 -0.25232 0.0332597 0.23859 0.154615 0.122607 -0.132036 -0.111281 0.0588352 -0.037056 -0.199169 0.0421248 -0.00941226 -0.165834 0.15878 0.191768 -0.0207535
363 0.00381442 -0.0683498 0.0526858 -0.0148578 -0.103241 0.01624 -0.0414999 -0.0311195 -0.0246777 0.0620568 -0.0116959 0.0196528 -0.0505206 0.169132 0.0858866 -0.0360154 0.0631284 -0.0335958 -0.00378282 0.00646085 -0.146845 -0.0216364 0.0341633 -0.000163964 0.00235909 0.227125 0.0543404 0.0649853 -0.0454421 0.0552001 -0.0892739 0.00681507 0.0418375 -0.0733094 0.104449 -0.192416 -0.0208774 0.0674146 -0.0389564 -0.0370454 -0.0157503 0.178973 0.0784495 0.00641282 0.00894851 0.0383686 0.18827 0.109847 0.0483618 -0.235995 0.0213882 -0.172086 -0.0874287 0.0570346 0.0746052 -0.0206201 0.117548 -0.14616 -0.104431 -0.00871336 0.110519 0.0424046 0.17562 0.117942 0.0793988 -0.0401116 0.0194977 -0.162114 0.0973375 0.228039 -0.0653844 -0.048724 0.200281 -0.114495 -0.0397134 -0.0654417 0.0238213 -0.136042 0.0579504 -0.0326286 0.00351167 -0.233585 -0.154671 -0.151918 -0.18508 -0.0256019 0.00679703 0.108506 0.261835 -0.281874 0.0278737 -0.240258 0.387689 0.272964 -0.205426 -0.106153 0.0392603 -0.458507 0.106478 -0.0610914 0.168428 0.221334 -0.171349 -0.0211204 0.247929 -0.0993159 0.213659 -0.0618046 -0.0802866 0.142037 0.356459 -0.19995 -0.371672 -0.380684 0.426384 -0.243678 0.584829 0.115047 0.0835195 -0.231405 -0.0129506 -0.112217 0.0739753 0.35991 -0.0221401 -0.202735 0.433747 0.168237 0.131512 0.127997 -0.235269 -0.524014 -0.043608 0.0684089 0.192536 -0.716745 -0.215462 0.673064 -0.306155 0.258351 -0.0870019 0.250299 -0.346726 0.243022 0.314991 0.206115 0.57409 0.21096 0.0340634 0.736217 -0.2107 -0.323317 -0.281377 -0.180908 0.102386 -0.376219 0.0535118 -0.175423 -0.0882386 0.041271 -0.112635 -0.320659 0.0372527 -0.076858 0.0587105 0.342327 -0.256592 0.0232097 0.258978 0.157941 0.139714 -0.0765548 -0.210268 0.0521622 -0.0844092 -0.25954 0.0317783 -0.0160711 -0.278516 0.256799 0.342813 -0.0316912
504 0.0833533 -0.161827 0.0144266 -0.0199161 -0.16626 0.152002 -0.0539466 -0.065611 -0.0106642 -0.0266304 -0.0868634 0.024266 0.0325642 -0.0179008 -0.007232 0.013098 0.127842 -0.025194 0.0120768 -0.00295342 -0.0286798 0.0870155 0.129741 -0.0174308 0.0143082 0.219238 0.0328671 0.0471417 -0.091142 0.0356837 -0.206706 0.0206519 0.0503337 -0.207424 -0.0653872 0.00526393 0.0118056 0.0670224 0.0795677 0.101066 0.0129617 0.162542 -0.0439781 -0.0444952 0.0611053 0.117211 0.136284 0.00240175 0.103479 -0.217369 0.124601 -0.455225 -0.131665 0.0303598 0.251432 -0.200996 0.180304 -0.172145 -0.1487 -0.0457949 0.0667621 0.101206 0.0869669 0.0505493 0.0407914 -0.00341887 0.0393445 -0.046584 0.046176 0.164444 -0.163472 0.031407 0.0729168 -0.0393487 0.0325392 -0.0644738 -0.0430339 -0.317868 0.0796298 -0.00869156 -0.00748435 -0.184158 -0.182859 -0.218215 -0.181568 -0.0278276 0.00141221 0.15989 0.364383 -0.385673 0.0260644 -0.446445 0.639052 0.377628 -0.22283 -0.0917264 0.0517219 -0.39294 0.0603509 -0.0702115 0.151558 0.135378 -0.199637 -0.0337554 0.281441 -0.0118608 0.274986 -0.0314347 -0.139909 0.201125 0.356491 -0.23202 -0.420571 -0.45795 0.415601 -0.24486 0.404932 0.0643428 0.137884 -0.319563 0.0114252 -0.113527 0.0898659 0.540705 -0.0794504 -0.273542 0.406463 0.15298 0.216818 0.104881 -0.285102 -0.614454 -0.0503544 0.0680656 0.13571 -0.599448 -0.155096 0.471992 -0.277343 0.213409 -0.0674712 0.211021 -0.31652 0.247668 0.352518 0.245812 0.58822 0.249284 0.0559015 0.601046 -0.31108 -0.469038 -0.19779 -0.163872 0.075605 -0.462572 0.0782877 -0.226448 -0.134274 0.0352623 -0.073555 -0.37014 0.0491043 -0.0278504 0.076583 0.288236 -0.347884 0.0592039 0.289078 0.242287 0.162411 -0.0677883 -0.25723 0.109171 -0.157175 -0.258809 0.0442556 -0.0193812 -0.266324 0.299522 0.33315 -0.00114102
586 -0.0215098 0.0263687 -0.00411027 0.0032237 -0.153036 0.176822 -0.151341 -0.0411287 -0.0352739 0.120818 0.00609785 0.000166123 0.037031 -0.145027 -0.0448531 -0.0149146 0.252654 -0.0293961 0.0210675 -0.00227341 0.0628235 0.0793538 0.0433724 -0.00423855 0.0162475 0.10833 -0.00761824 0.01352 -0.0541065 0.00477342 -0.0474765 -0.0220948 0.0720233 -0.154874 -0.170905 0.116623 0.0128285 0.0562354 0.0973472 0.105817 -0.0174117 0.184299 -0.0889686 0.00188051 0.0598045 0.101137 0.23631 0.0966714 0.0424215 -0.141353 0.075884 -0.230481 -0.0620708 0.0168984 0.134337 -0.0613326 0.161825 -0.166605 -0.0770623 -0.0769583 0.110703 0.0827959 0.147271 0.0818392 0.0398529 -0.00409593 0.044878 -0.124736 0.0567676 0.12507 -0.150118 0.0636379 0.261144 -0.12333 0.00849959 -0.0286638 0.0200581 -0.218438 0.0864709 -0.0178044 -0.0160207 -0.237826 -0.147736 -0.178828 -0.134724 -0.0165755 0.0337027 0.0926035 0.210054 -0.240236 0.0410024 -0.305421 0.370215 0.229104 -0.194125 -0.0680599 0.027047 -0.343472 0.0795472 -0.0940684 0.127157 0.17471 -0.211516 -0.0402302 0.263273 -0.0747174 0.389497 -0.160058 -0.160317 0.138524 0.402433 -0.196188 -0.425077 -0.420655 0.338632 -0.173806 0.353829 0.0495969 0.139113 -0.280135 -0.00341214 -0.132651 0.012995 0.425999 -0.0602442 -0.248376 0.438272 0.167772 0.194875 0.115107 -0.250062 -0.586316 -0.0341024 0.0471656 0.208745 -0.862651 -0.120776 0.517421 -0.353398 0.30054 -0.115312 0.248057 -0.348357 0.333502 0.32593 0.217844 0.457315 0.19402 0.0278029 0.498173 -0.362951 -0.526331 -0.248597 -0.151253 0.0775993 -0.330306 0.0773709 -0.181426 -0.0975044 -0.00802459 -0.0743507 -0.320225 0.0570359 -0.0708543 0.05318 0.270214 -0.3085 0.0631638 0.276624 0.183486 0.18818 -0.103942 -0.223144 0.114631 -0.106598 -0.274888 0.0435854 -0.000696175 -0.203656 0.19728 0.271224 0.022102
538 -0.0403267 0.0152252 -0.0268037 -0.0171726 -0.087059 0.0857444 -0.119164 -0.0524588 -0.00814468 0.0361974 -0.00458079 0.0221367 -0.0333498 0.0251538 0.0470917 -0.037177 0.131107 -0.0190562 0.0171878 -0.0686557 0.0755004 0.08387 0.0395546 -0.000604155 0.0209086 0.141551 0.0101707 -0.00643297 -0.109568 0.0406905 -0.0665546 0.0240267 0.0225302 -0.0940122 -0.149943 0.107745 0.0190719 -0.0114998 0.0492532 0.0627592 -0.00365183 0.17218 -0.0509819 -0.0475703 0.0332321 0.0702217 0.131271 0.0472379 0.0722952 -0.184096 0.0731013 -0.255147 -0.0695888 0.019441 0.134796 -0.0652046 0.151354 -0.147185 -0.110054 -0.0445477 -0.0286716 0.110646 0.125855 0.0561718 0.0502915 -0.0452047 0.0336366 -0.165611 0.0611061 0.175427 -0.188555 0.059999 0.257368 -0.0995103 -0.00412367 -0.0525701 -0.0256955 -0.272538 0.115705 -0.00921672 -0.0503315 -0.250894 -0.16867 -0.227963 -0.206619 -0.0496871 0.0263509 0.120412 0.318468 -0.314871 0.0392386 -0.353598 0.475034 0.29884 -0.232615 -0.0886621 0.0507595 -0.396585 0.0987231 -0.125476 0.142502 0.149296 -0.194652 -0.0441074 0.235255 -0.056241 0.320191 -0.0806188 -0.12044 0.164758 0.330016 -0.143358 -0.311573 -0.323475 0.310798 -0.187542 0.305232 0.0731908 0.0492227 -0.200746 0.0200864 -0.0796052 0.0621041 0.357547 -0.0361215 -0.213352 0.392015 0.160842 0.160261 0.13679 -0.253609 -0.67011 -0.068 0.0531936 0.219378 -0.851962 -0.228811 0.535426 -0.334253 0.290138 -0.0786466 0.205373 -0.281788 0.242829 0.347442 0.228494 0.640739 0.259008 0.0864049 0.480664 -0.225811 -0.326634 -0.195832 -0.196761 0.0859363 -0.42061 0.092883 -0.181206 -0.090898 0.0108622 -0.0734245 -0.469116 0.0960849 -0.103238 0.0463794 0.26698 -0.320552 0.0608768 0.26978 0.195023 0.204106 -0.0888625 -0.178554 0.0680527 -0.0882855 -0.254623 0.0400282 0.0196814 -0.235679 0.178023 0.240706 0.00363617
390 -0.0556399 0.0543888 -0.0451008 -0.0274817 -0.0898243 0.12238 -0.127348 -0.0713236 -0.0660071 0.108052 -0.028739 0.0520353 -0.0587702 0.0207222 0.0504839 -0.0335841 0.122933 -0.035883 0.0312167 -0.0345621 -0.0420997 0.0720478 0.0500726 0.00430147 -0.0224822 0.149861 -0.0160403 0.0150791 -0.0630857 0.0310848 -0.133191 -0.0227579 -0.0142571 -0.119964 -0.0929446 0.0645327 0.00416705 0.0286542 -0.0019532 -0.0151633 0.00900653 0.0296062 -0.00346329 -0.0308213 -0.0221582 0.0347252 0.147995 0.0505732 0.0643322 -0.185315 0.141659 -0.403613 -0.0757039 0.0124244 0.0744989 -0.0207358 0.0881739 -0.131255 -0.0654005 -0.00476489 0.0361038 0.0751608 0.110429 0.0843358 0.071249 -0.0576956 0.0350782 -0.204465 0.0477184 0.180263 -0.0751208 0.00154402 0.164517 -0.0848071 0.0326682 -0.0463943 -0.00903242 -0.195239 0.0929222 -0.00488132 -0.0151558 -0.193198 -0.187942 -0.22382 -0.124981 -0.0401219 0.030268 0.0855209 0.310171 -0.292464 0.0393108 -0.314562 0.447722 0.280996 -0.246742 -0.128599 0.0709963 -0.411476 0.0851604 -0.120962 0.112155 0.145865 -0.201789 -0.0300612 0.257855 -0.047992 0.266774 -0.0705935 -0.0737278 0.0975921 0.306416 -0.171177 -0.406925 -0.457487 0.425097 -0.238827 0.411104 0.0725359 0.137408 -0.334911 0.0280038 -0.111952 0.0722542 0.472816 -0.047175 -0.209958 0.375258 0.162111 0.169999 0.0874909 -0.242199 -0.584581 -0.0358651 0.0555324 0.181763 -0.677729 -0.176952 0.521417 -0.268708 0.223414 -0.0729078 0.137839 -0.338958 0.279603 0.417369 0.223966 0.665287 0.270209 0.0284638 0.582339 -0.251631 -0.372507 -0.212811 -0.162323 0.0488623 -0.318403 0.0592126 -0.146031 -0.109167 0.0339829 -0.0783559 -0.390438 0.0954226 -0.0929144 0.034259 0.219282 -0.24167 0.0335698 0.265764 0.216143 0.150103 -0.045843 -0.170936 0.0538532 -0.169816 -0.29468 0.091527 0.0113754 -0.266012 0.26264 0.279309 0.016922
457 -0.0497447 0.0128962 -0.000168721 0.00699013 -0.100188 0.0493577 -0.083695 -0.0491065 -0.0214044 0.0263493 -0.0595139 0.0327065 0.0205598 -0.120952 -0.0036782 -0.0313248 0.117409 -0.0233639 0.0121422 0.0307009 -0.0223431 0.0436266 0.0904981 -0.0258365 0.0222083 0.152924 0.0296189 0.057485 -0.0155865 0.0261224 -0.0509771 -0.0107428 0.000364611 -0.123271 -0.178577 0.112647 0.03769 0.0624234 0.116079 0.119384 0.0296962 0.0646637 -0.0916801 -0.0205609 0.0664397 0.0881044 0.143236 0.0662038 0.0543148 -0.136593 0.0818512 -0.283993 -0.0340011 0.0283183 0.177768 -0.0988287 0.135695 -0.151721 -0.137955 -0.0840362 0.106236 0.050762 0.133259 0.100407 0.0549354 0.00281342 0.0498919 -0.204211 0.0890334 0.166413 -0.172079 0.0595236 0.209786 -0.0604727 -0.0160445 -0.0498043 0.0276455 -0.211681 0.0766981 -0.0412702 -0.00807054 -0.281798 -0.149756 -0.211267 -0.140357 -0.0313669 0.024756 0.107496 0.190429 -0.193616 0.0204142 -0.329218 0.483804 0.290127 -0.186172 -0.052239 0.037029 -0.421494 0.0871643 -0.083476 0.103386 0.203295 -0.220799 -0.024733 0.20566 -0.0347354 0.288603 -0.111269 -0.115943 0.137599 0.327253 -0.136542 -0.413198 -0.428262 0.397548 -0.205796 0.401251 0.0794596 0.181504 -0.353419 0.00355749 -0.0868018 0.0599118 0.523787 -0.0407342 -0.23216 0.444486 0.133388 0.185486 0.145646 -0.258037 -0.582126 -0.0314784 0.0443963 0.227935 -0.836598 -0.137729 0.461962 -0.32676 0.285782 -0.0842467 0.19131 -0.282779 0.23343 0.339944 0.224358 0.587908 0.228053 0.0303047 0.552953 -0.305035 -0.496602 -0.240056 -0.191537 0.133969 -0.510696 0.114454 -0.201049 -0.0994365 0.0451352 -0.0771465 -0.395501 0.0601133 -0.0848974 0.0474084 0.283724 -0.332474 0.0303218 0.248048 0.185113 0.189725 -0.114662 -0.210108 0.0746458 -0.112736 -0.281374 0.0302229 0.0226877 -0.288149 0.299838 0.386083 0.0110398
461 -0.106563 0.038157 0.0344301 0.0248802 -0.0486964 -0.051375 -0.0809047 -0.044349 -0.01238 0.0102431 -0.0913868 0.0238302 0.0254209 -0.167192 -0.0560897 -0.0602852 0.240582 -0.0541659 0.0141436 -0.0122183 0.00091288 0.0116672 0.108096 -0.0470786 0.0107949 0.274541 0.0544727 0.09707 0.0491182 0.0335211 0.0570686 -0.0168785 -0.0733032 -0.0238296 -0.0505543 -0.0244556 0.0682861 -0.00619763 0.0776299 0.124546 0.00103895 0.10756 -0.0512904 0.0129406 0.109069 0.144682 0.206356 0.141994 0.0656833 -0.005225 0.0384232 -0.231366 -0.00494482 0.0578349 0.205877 -0.0972362 0.179016 -0.179361 -0.140117 -0.0784925 0.204297 0.00144934 0.161099 0.0891037 -0.00229588 0.0237024 0.0304622 -0.114527 0.0441734 0.0967807 -0.178052 0.0905839 0.219993 -0.0820039 -0.0377471 -0.0679929 0.0500467 -0.190405 0.0897878 -0.022678 -0.0237119 -0.153964 -0.131762 -0.16128 -0.143354 -0.0312936 0.0129634 0.133898 0.183926 -0.169368 -0.00439297 -0.227436 0.692545 0.399003 -0.191548 -0.0300009 0.0390278 -0.258482 0.0803467 -0.0787641 0.0522126 0.190853 -0.189983 -0.0210176 0.190393 -0.0519423 0.246534 -0.0882479 -0.165167 0.107146 0.400214 -0.158194 -0.307616 -0.326239 0.403726 -0.199671 0.4188 0.0754092 0.190619 -0.350792 0.0378472 -0.0979066 0.0232513 0.340796 -0.0706896 -0.293054 0.39495 0.172842 0.114792 0.116108 -0.244158 -0.533853 -0.0184127 0.0471714 0.195749 -0.770334 -0.174172 0.487678 -0.28109 0.23899 -0.172945 0.306136 -0.396574 0.343231 0.284132 0.221929 0.636184 0.240206 0.0508384 0.642698 -0.345989 -0.483995 -0.2264 -0.245881 0.141184 -0.387313 0.170631 -0.236676 -0.0898052 0.0531779 -0.0885327 -0.307263 0.068634 -0.0711721 0.0446249 0.264662 -0.370056 0.0473767 0.369713 0.211322 0.165265 -0.16774 -0.225094 0.119606 -0.062531 -0.300363 -0.00474468 0.0476448 -0.194514 0.146163 0.19429 -0.00720619
518 0.199697 -0.281312 -0.00198781 0.0172348 -0.0544506 0.0509772 -0.0917704 -0.0268015 -0.0323998 0.133221 0.00390187 -0.00882244 0.011988 -0.0385464 0.0212943 -0.0229044 -0.0433442 -0.0176205 -0.0133521 0.0345313 0.130194 0.0370871 -0.0376465 0.012353 0.0110848 0.115864 0.0294883 0.0329375 0.0218528 0.0408717 -0.102881 0.0421398 -0.0239668 -0.0205676 -0.140025 0.128155 0.00602615 0.0247532 0.0692264 0.098228 -0.00197965 0.0947125 -0.0528972 0.0110115 0.0196007 -0.0328601 0.0211701 -0.00963386 0.00506897 0.00505584 0.082488 -0.238545 -0.0463135 0.0177007 0.117042 -0.106891 0.116349 -0.152061 -0.174989 -0.128073 0.133474 0.0536139 0.109147 0.0719939 0.0382351 0.0139913 0.00274313 -0.243534 0.0860661 0.199102 -0.160169 0.093482 0.201494 -0.118561 -0.00791115 -0.0357557 -0.0248615 -0.109819 0.05178 -0.00422415 -0.021231 -0.175731 -0.176463 -0.219848 -0.161694 0.000163439 0.0323868 0.146279 0.228711 -0.228293 0.0639955 -0.398475 0.485832 0.306531 -0.170891 -0.0785414 0.0677972 -0.349956 0.0611623 -0.0868491 0.130427 0.117191 -0.198868 -0.0908486 0.216222 -0.0739199 0.465275 -0.115159 -0.113824 0.110718 0.314398 -0.155618 -0.2508 -0.276871 0.283436 -0.114217 0.312562 0.0522088 0.108706 -0.279312 0.00471415 -0.115261 0.0242121 0.412708 -0.0648971 -0.221554 0.248847 0.101554 0.0990734 0.0860459 -0.162662 -0.373253 -0.0432951 0.0637612 0.173959 -0.668198 -0.152483 0.401897 -0.393704 0.345199 -0.120352 0.231137 -0.299096 0.230991 0.329819 0.226314 0.531598 0.210494 0.00509093 0.600527 -0.335739 -0.490948 -0.229964 -0.207225 0.13604 -0.5892 0.138879 -0.266319 -0.137436 0.0352091 -0.0714603 -0.408828 0.067813 -0.0731348 0.0603955 0.322433 -0.397688 0.0396044 0.345498 0.249353 0.252745 -0.134986 -0.212045 0.158784 -0.109341 -0.251843 0.0569139 -0.0158078 -0.306053 0.255421 0.296245 0.0205547
708 0.167538 -0.246987 0.0460322 0.00247818 0.0863247 -0.107421 0.0947485 0.0271617 0.0466446 -0.00477855 0.0337038 -0.00582388 0.026378 0.0916282 -0.0440231 0.00423112 -0.260773 0.00359883 -0.0336782 0.0985021 -0.0988496 -0.013551 0.0019998 -0.0791848 -0.128853 0.112646 0.0779595 0.0251278 -0.00936812 -0.0587945 -0.0393621 -0.00482444 0.152113 -0.0342351 0.0518844 -0.020685 -0.0293102 0.10501 0.00652221 0.141552 -0.0929173 0.23042 -0.128812 0.0561007 -0.00447473 -0.00764858 0.102181 0.14173 -0.00886285 -0.16364 0.0371185 -0.121772 0.122082 0.0474835 0.0443947 -0.0561385 0.255094 -0.322316 -0.0810032 -0.126748 0.255535 -0.154963 0.0550495 -0.0373092 0.0525061 0.00117329 -0.0603471 -0.179256 0.0987875 0.0440193 0.0334558 -0.00218877 0.107696 -0.111742 -0.0508382 -0.0557621 0.0927506 -0.0806179 0.102549 0.0223363 -0.0161168 -0.274606 -0.100532 -0.166177 -0.206158 0.00503088 0.0331355 0.114453 0.347093 -0.218227 0.0839097 -0.577608 0.575924 0.291698 -0.161359 -0.0872646 -0.083883 -0.388523 0.0647868 -0.0214476 0.143344 0.155984 -0.1471 -0.0754746 0.152779 -0.0599871 0.172281 -0.111246 -0.0142467 -0.0271945 0.212218 -0.0640749 -0.45792 -0.38746 0.194894 -0.0783477 0.279169 0.0616887 0.299369 -0.424992 0.0232493 -0.0904114 -0.0997468 0.483681 -0.0263393 -0.225773 0.395847 0.158292 0.189304 -0.00679788 -0.17346 -0.198953 -0.0786946 0.119254 0.113637 -0.705082 -0.114556 0.35253 -0.255121 0.211491 -0.142947 0.139834 -0.196776 0.253048 0.539787 0.355868 0.396237 0.156202 -0.02514 0.433889 -0.338601 -0.435338 -0.274276 -0.156904 0.221095 -0.506722 0.207161 -0.0637133 -0.143036 0.0861777 -0.0866311 -0.62394 0.0978925 -0.0451455 0.240458 0.26888 -0.340225 -0.0258457 0.556665 0.10131 0.207695 -0.1078 -0.193179 0.118132 -0.028734 -0.293564 0.0264478 -0.0659483 -0.401112 0.248845 0.233897 -0.00207142
1001 0.02965 -0.0793149 0.0176631 0.00640321 0.0949743 -0.143258 0.194348 0.0436981 -0.01959 -0.0571044 0.0515949 -0.0354537 0.0110493 0.0882847 4.08205e-05 0.00377245 -0.122149 0.0436141 -0.0893185 0.161265 -0.167508 -0.0564551 0.0214175 -0.0445478 -0.0635189 0.141873 0.0625273 0.0237308 0.130756 -0.0162122 0.0667315 0.0520771 0.0414406 -0.00803314 -0.0940989 0.190105 0.00427867 0.0256421 0.104557 0.187191 -0.0616588 0.168592 -0.114659 0.0188916 0.0339647 -0.0481987 0.058778 0.137178 0.0214557 -0.109894 0.117736 -0.250569 0.0321612 0.0119195 0.0563271 -0.101733 0.143197 -0.209143 -0.0411324 -0.0109109 0.388336 -0.165815 0.131627 0.0167895 0.118055 -0.0222894 -0.133969 -0.335112 0.100353 0.168508 -0.153002 0.0953312 0.191931 -0.168742 0.0138887 -0.071155 0.0613531 -0.136904 0.148235 0.011346 -0.0214541 -0.428024 -0.170192 -0.387242 -0.238678 -0.0042604 0.0597835 0.141634 0.278699 -0.238675 0.0232834 -0.398631 0.505487 0.263369 -0.255996 -0.144177 0.0293033 -0.306956 0.113433 -0.0593867 0.166127 0.0835861 -0.198583 -0.0963506 0.140051 -0.0732394 0.225703 -0.130692 0.013568 0.0308681 0.167842 -0.0982542 -0.255184 -0.23587 0.277412 -0.0891794 0.117526 0.0402588 0.179365 -0.325473 -0.00487129 -0.130985 -0.0721696 0.313412 -0.0848121 -0.175873 0.425671 0.180758 0.245705 -0.000599958 -0.231998 -0.473464 -0.0704206 0.114566 0.23846 -1.14539 -0.196679 0.398403 -0.331171 0.230309 -0.130994 0.199487 -0.234096 0.22245 0.329554 0.158555 0.372687 0.182944 -0.0579868 0.417557 -0.330787 -0.451678 -0.297996 -0.118604 0.154754 -0.409785 0.154156 -0.123094 -0.181919 0.0648264 -0.0880658 -0.52294 0.114038 -0.065089 0.122275 0.290438 -0.436843 -0.0048161 0.406132 0.149527 0.144941 -0.0455561 -0.110416 0.0995415 -0.0303098 -0.0444857 -0.0103521 -0.120754 -0.308167 0.239476 0.207761 -0.0306008
989 0.0895519 -0.169811 0.0293062 0.0411596 0.0457753 -0.0601314 0.123237 0.0534148 0.0723256 -0.149668 0.0173741 0.0029055 -0.0322135 0.178758 0.064278 -0.0185154 -0.1917 0.0312539 -0.0183583 0.0578091 -0.00344414 -0.00906033 -0.0666114 -0.0171243 0.00243291 0.0506113 0.0297733 -0.0634044 -0.0412887 0.0372874 -0.0356447 0.00352383 0.0856543 -0.0151037 -0.0240316 0.118505 -0.0135536 0.0612675 0.0469403 0.0689473 -0.0362541 0.129234 -0.114237 0.00587892 0.0114013 0.06041 0.307442 0.217469 -0.0300776 -0.198868 0.123079 -0.26874 0.00908956 0.0669726 0.132192 -0.138562 0.301703 -0.397341 -0.0754204 -0.0955739 0.196467 -0.0859918 0.194362 0.0494529 0.122515 -0.034688 -0.0220863 -0.206754 0.0461539 0.0778841 -0.100142 0.0550981 0.27387 -0.146053 -0.0322127 -0.0438775 0.0359085 -0.13757 0.163204 0.00458009 -0.0522093 -0.312897 -0.133454 -0.217614 -0.24995 -0.0283013 0.0600748 0.172721 0.197496 -0.176642 0.0580816 -0.336715 0.466643 0.319942 -0.219206 -0.145922 0.0213 -0.321761 0.0834774 -0.073998 0.136256 0.139909 -0.116331 -0.0686439 0.110388 -0.14089 0.249777 -0.123287 -0.0742536 0.0152601 0.207297 -0.0826314 -0.323242 -0.271343 0.227383 -0.108843 0.314422 0.0700458 0.192737 -0.304568 0.0197412 -0.121389 -0.0906257 0.261687 -0.00559854 -0.172402 0.376997 0.0881788 0.142489 0.0443528 -0.134198 -0.330722 -0.066055 0.0569835 0.159318 -0.853974 -0.156563 0.37031 -0.253854 0.221571 -0.163126 0.220605 -0.240564 0.277403 0.345375 0.239947 0.495003 0.154529 -0.000599926 0.53583 -0.475562 -0.628973 -0.329389 -0.18413 0.149363 -0.465632 0.160925 -0.134746 -0.149828 0.0633061 -0.0500449 -0.439558 0.0440741 -0.0658046 0.0423867 0.169486 -0.370652 0.0186355 0.452586 0.159683 0.20442 -0.158841 -0.168855 0.10772 0.0330054 -0.291877 -0.0283347 -0.0842724 -0.438823 0.201017 0.241356 -0.00662866
666 0.0844542 -0.159922 -0.0169963 0.00678199 0.0678744 -0.129076 0.15237 0.0230515 -0.0338789 -0.0322664 0.0380291 -0.000432899 -0.0973623 0.255749 0.0656396 -0.0317841 -0.209729 0.00512498 -0.0486112 0.0509223 -0.209158 -0.0821201 -0.0089649 -0.0204261 0.0740848 -0.0561018 0.0649106 -0.0410541 0.0598399 -0.0032559 0.198986 -0.0012611 0.229324 -0.118338 -0.122711 0.199948 -0.0494038 -0.00956999 -0.0587025 0.0897419 -0.0714894 0.287318 -0.138542 -0.00381779 0.0548138 0.0984658 0.275138 0.274411 0.0192702 -0.27954 0.0575502 -0.0620436 0.0447926 0.0131925 0.0311474 -0.0195762 0.160456 -0.191291 -0.0723977 0.000989926 0.238929 -0.13761 0.117237 0.0735759 0.140787 0.00479785 -0.0633076 -0.275543 0.040929 0.0856531 -0.0436062 0.0187005 0.321234 -0.275646 -0.0168876 -0.0505359 0.153157 -0.145946 0.161471 -0.0245315 -0.0456682 -0.402378 -0.103832 -0.279584 -0.186507 -0.0875619 -0.0086202 0.0934397 0.258316 -0.243703 0.0031104 -0.284134 0.496923 0.308388 -0.18729 -0.0607385 -0.058165 -0.43434 0.10444 -0.0580322 0.13178 0.152962 -0.176978 -0.0120273 0.245364 -0.176494 0.361687 -0.193779 -0.0621528 0.0781364 0.354737 -0.194977 -0.522719 -0.415418 0.395785 -0.212964 0.330931 0.077167 0.267462 -0.388494 0.012072 -0.048656 -0.103531 0.440122 -0.0317298 -0.201204 0.440166 0.17683 0.17509 0.0292109 -0.233863 -0.439974 0.0105892 0.0306993 0.135794 -0.857873 -0.209917 0.437808 -0.302971 0.209479 -0.206949 0.26929 -0.310429 0.436303 0.510774 0.22058 0.600721 0.194313 -0.0757362 0.51689 -0.369698 -0.533166 -0.229658 -0.108569 0.0975828 -0.312238 0.0785311 -0.101745 -0.146404 0.0598508 -0.0980142 -0.398914 0.126338 -0.026811 0.144567 0.300918 -0.357455 0.0251191 0.550952 0.165789 0.161584 -0.0947962 -0.163194 0.0529414 -0.0606924 -0.18437 -0.0147139 -0.0674057 -0.280256 0.227541 0.136869 -0.0316686
659 0.204056 -0.133894 0.00482975 0.0404835 -0.0266768 0.0314207 -0.0453689 0.0138112 -0.0679955 0.149767 0.0460574 0.0280872 -0.00851638 0.0852504 0.0340869 -0.00622114 -0.186479 0.0541526 -0.0398254 0.0137656 -0.0701266 -0.0759612 -0.089475 0.0550816 -0.00472482 0.0235595 0.00443363 -0.050083 0.016579 -0.0392929 0.139345 0.025887 0.0769155 0.0768458 -0.037783 0.209335 -0.0313786 0.234097 0.096288 0.0951747 -0.0168028 0.211488 -0.117946 0.0278217 0.138967 0.121077 0.265237 0.264245 0.0060089 -0.315615 0.0693395 -0.104443 0.118469 0.0279768 -0.00922357 -0.101232 0.127766 -0.168711 0.0107897 -0.0032317 0.179641 -0.182227 0.0679556 0.0403306 -0.0115596 -0.0205772 -0.129611 -0.154391 -0.0174665 -0.0108258 0.0863521 0.0465029 0.117008 -0.0540881 0.031379 0.00345349 0.164529 -0.0684971 0.120357 -0.0211439 -0.090737 -0.314522 -0.0248357 -0.238197 -0.213649 -0.0315528 0.00977085 0.105735 0.166771 -0.209594 0.0577032 -0.375311 0.512545 0.283895 -0.305302 -0.186824 -0.0788833 -0.308723 0.0300441 -0.0528909 0.123055 0.168663 -0.257073 -0.103716 0.201479 -0.157816 0.265072 -0.189329 -0.140161 -0.00582664 0.285149 -0.213522 -0.346678 -0.205037 0.39242 -0.144898 0.453528 0.0516693 0.274105 -0.375976 -0.0652468 -0.0769604 -0.106911 0.497899 -0.00701227 -0.109386 0.500687 0.193178 0.178101 -0.00873225 -0.271323 -0.492751 -0.0599284 0.0929607 0.093392 -0.826504 -0.110842 0.412299 -0.293772 0.189861 -0.237705 0.151939 -0.349658 0.473546 0.473072 0.20876 0.49772 0.189564 -0.0635086 0.573073 -0.28602 -0.468752 -0.286577 -0.00875086 0.0900259 -0.220663 0.19326 -0.0790616 -0.197604 0.0973189 -0.0396752 -0.291267 0.157526 -0.0711824 0.248716 0.277033 -0.346088 0.0464544 0.383472 0.0666983 0.147237 -0.0866298 -0.153964 0.116841 0.0188133 -0.135728 0.000426656 -0.0832788 -0.33164 0.360886 0.131915 0.0527597
1012 0.0585676 -0.132866 0.0319535 0.04029 -0.0102761 0.0543488 -0.295071 -0.0490222 -0.0529819 0.0937463 0.092009 0.0321874 -0.0728661 0.195324 0.072905 -0.0728178 -0.268897 -0.0172285 -0.0178779 0.0374336 -0.0838225 -0.00634618 -0.0766161 -0.0315723 0.0781575 -0.246797 0.0236843 -0.0315718 -0.0189478 -0.0290216 -0.0288276 0.00687828 -0.0513194 0.033866 0.0723534 -0.0665945 -0.0264837 0.0404411 0.109743 0.200802 -0.0740214 0.0864366 -0.283548 -0.0179155 0.117397 0.142264 0.649917 0.48166 0.0037956 -0.396839 0.094192 -0.274633 0.043902 0.0121236 0.210769 -0.229493 0.183956 -0.225185 -0.184922 -0.193123 0.413559 -0.233556 0.15942 0.0978939 0.0496941 -0.00219114 -0.0213814 -0.201188 0.0871818 0.087782 -0.0766458 0.0165784 0.135595 -0.109574 -0.00910549 -0.0722943 0.135052 -0.181915 0.159018 0.00288723 0.00878079 -0.258575 -0.0394297 -0.0798988 -0.0840345 -0.0024839 0.026533 0.153863 0.203084 -0.138145 0.0137686 -0.498996 0.581878 0.301507 -0.2146 -0.157437 -0.0365751 -0.342882 0.0553869 -0.0285514 0.111388 0.0942939 -0.182158 -0.0571947 0.0969881 -0.0376965 0.289955 -0.172241 0.000557463 0.0239071 0.298392 -0.123942 -0.288301 -0.202122 0.159689 -0.0629384 0.271679 0.0181461 0.207687 -0.356828 -0.010333 -0.00169505 -0.121578 0.471932 -0.0721957 -0.283958 0.62301 0.207471 0.181808 0.00461629 -0.214686 -0.395086 -0.0404996 0.0684336 0.168637 -1.0862 -0.189829 0.364474 -0.445645 0.358393 -0.30028 0.232676 -0.403717 0.49116 0.451782 0.249836 0.542924 0.183072 -0.0311174 0.58989 -0.308112 -0.479431 -0.115759 -0.0520057 0.170736 -0.349828 0.149042 -0.113286 -0.12433 0.116172 -0.0243248 -0.316513 0.0397684 -0.0299058 0.148124 0.196285 -0.30849 -0.0351252 0.309232 0.00156229 0.165666 -0.0829903 -0.124232 0.029607 -0.0589862 -0.197672 -0.0273567 -0.0310128 -0.222558 0.186612 0.119042 -0.0166904
842 0.184748 -0.111443 0.0411988 0.0316705 -0.0108195 0.104005 -0.133508 0.0178268 -0.0313651 0.126698 0.202633 -0.0581007 0.0180321 -0.0992195 0.082723 -0.0217009 -0.0476873 0.106523 -0.0157376 -0.00241004 0.00304889 -0.0356603 -0.152289 0.0320209 -0.0189409 -0.0335549 0.00570026 -0.121594 -0.0544443 -0.0614586 0.273934 -0.0116916 -0.0328283 0.180129 -0.0566619 0.127351 0.00108066 0.143017 0.0160816 -0.0404903 -0.041592 0.239961 -0.102756 -0.00245982 -0.000948944 -0.0959757 0.382337 0.232143 -0.0289704 -0.243429 0.142864 -0.170006 0.0226423 0.0977139 0.0676748 -0.10325 0.206983 -0.303838 -0.00609078 -0.0771135 -0.0793111 -0.0379285 0.138581 0.133972 0.0609554 -0.0119796 -0.140409 -0.187068 0.0415167 0.201849 -0.0308496 0.101439 0.317513 -0.160382 0.043974 -0.0441293 0.125148 -0.0794556 0.236596 0.0687917 -0.000166684 -0.365861 -0.0928519 -0.258817 -0.263815 0.0485782 0.0759952 0.130209 0.269543 -0.186592 0.0457669 -0.410101 -0.0022644 0.0429688 -0.28543 -0.197362 -0.0491879 -0.337321 0.0288905 -0.0829636 0.207374 0.0812588 -0.159717 -0.155986 0.290318 -0.106008 0.471824 -0.206473 -0.115163 -0.0690946 0.327991 -0.219847 -0.346558 -0.321634 0.359924 -0.126948 0.541545 0.0468462 0.270154 -0.435627 -0.0600323 -0.13316 -0.10069 0.533868 -0.00232903 -0.0481677 0.531913 0.234876 0.193032 0.0376134 -0.162801 -0.440057 -0.0893023 0.091946 0.0880804 -0.725397 -0.0584627 0.312644 -0.346523 0.2588 -0.0475049 0.0217207 -0.305698 0.414808 0.396385 0.192922 0.484106 0.126347 -0.0277911 0.665664 -0.344172 -0.557209 -0.320952 -0.128558 0.112948 -0.309468 0.083235 0.0344881 -0.168655 0.0180866 -0.00154125 -0.421689 0.190304 -0.162761 0.218569 0.279811 -0.287425 0.015454 0.329509 -0.0016678 0.163539 -0.129018 0.0135516 0.00798619 -0.0165218 -0.106671 0.00789416 -0.0675176 -0.291578 0.244875 0.201891 0.0988026
953 0.103994 -0.0378927 0.0584643 0.00263594 0.0663344 -0.0320097 -0.0257242 0.0217393 -0.045039 0.0734718 0.0874677 -0.04565 0.0332521 0.131799 0.00970079 0.0114489 -0.163772 0.104041 -0.0130365 0.0303023 0.0806843 0.0259616 -0.114605 0.0177337 -0.0173661 -0.19671 -0.0448966 -0.0790197 -0.000147053 -0.082655 0.203631 -0.0306239 0.0212867 0.0462865 0.0164601 0.0444534 0.0136127 0.0258602 0.0768633 0.150152 -0.0648825 0.0530581 -0.219718 0.00104348 0.0919875 0.112237 0.349887 0.209614 0.0144223 -0.253462 0.0557187 -0.178499 -0.0246563 -0.0319301 0.120449 -0.133104 0.17578 -0.139548 0.00988877 -0.0673128 0.129228 -0.113433 0.0500673 0.0594011 0.0829103 -0.0391174 -0.0552966 -0.133113 0.0168769 0.0454522 -0.140707 0.0542939 0.209283 -0.107425 0.0338223 -0.0513822 0.14806 -0.203841 0.184831 0.0754579 -0.0117324 -0.221419 0.00574224 -0.180601 -0.0851412 0.00871438 0.0799044 0.103896 0.237874 -0.161321 0.0317069 -0.404128 0.289003 0.22209 -0.126944 -0.121959 0.0548192 -0.212037 -0.0151396 -0.0166001 0.0136536 -0.0172393 -0.0952882 -0.0756514 0.136681 -0.00497629 0.33222 -0.170233 -0.0106196 -0.0317813 0.231771 -0.153073 -0.48735 -0.360885 0.320649 -0.147587 0.38165 0.054968 0.350543 -0.475398 -0.0251325 -0.161672 -0.111392 0.55528 -0.0470282 -0.18985 0.533619 0.175054 0.199187 0.020651 -0.102883 -0.372847 -0.0586537 0.0712373 0.0829318 -0.795567 -0.0303111 0.119871 -0.236924 0.103488 -0.14731 0.0663781 -0.135701 0.311286 0.526731 0.333102 0.472128 0.0995241 -0.0563753 0.43984 -0.342992 -0.539039 -0.285705 -0.0786607 0.0806199 -0.20589 0.0994977 -0.0254013 -0.179689 0.0152725 -0.0490102 -0.638832 0.137444 -0.0745507 0.189088 0.177523 -0.335004 0.0325374 0.357241 0.00373675 0.19023 -0.10662 -0.160247 0.110126 -0.0377047 -0.177814 -0.00061004 -0.0427603 -0.23286 0.232298 0.230047 0.0711989
683 -0.00388169 -0.0241306 -0.0452107 0.0331858 0.143485 -0.267921 -0.0418834 0.0592817 -0.0149744 0.00331434 0.0540612 -0.0332007 -0.0513176 0.282372 0.0338902 0.020411 -0.35685 0.0475449 -0.0693549 0.0959273 -0.093624 -0.00986441 0.0461683 -0.0951076 -0.0523733 -0.0274762 -0.0177514 -0.0136349 0.0145443 -0.00956798 0.0426888 -0.0669697 0.101621 -0.0968551 -0.0611677 0.0359835 -0.00216174 0.111716 0.0361616 0.18292 -0.101146 0.210999 -0.0655746 0.0407026 0.0392938 0.0675635 0.0811827 0.169381 -0.0197275 -0.125426 0.0395368 -0.160641 0.0661702 -0.0106038 0.115749 -0.0756909 0.209812 -0.14479 0.0424135 -0.0434381 0.271269 -0.221959 0.00588024 0.0299651 0.0610928 0.0164042 -0.0380895 -0.244839 0.0614811 0.0549171 -0.10354 0.0175044 0.30975 -0.195558 -0.032476 -0.058856 0.166729 -0.220949 0.0670756 0.0589195 -0.0191952 -0.211552 -0.0392922 -0.106705 -0.0716735 0.00295495 0.0164672 0.132963 0.167917 -0.109255 0.0849289 -0.283121 0.666903 0.39592 -0.087869 -0.0409975 0.0166151 -0.21459 0.0321049 -0.0453211 0.0360513 0.0715246 -0.0996345 -0.0110115 0.157016 -0.098053 0.227796 -0.103623 -0.0179526 0.0182086 0.197541 -0.0819047 -0.490582 -0.369898 0.298257 -0.200593 0.312187 0.0597519 0.316915 -0.510632 0.04219 -0.0865091 -0.121428 0.500793 -0.122053 -0.380825 0.55232 0.244242 0.239813 0.00772656 -0.248195 -0.463565 -0.0580278 0.0462107 0.134839 -0.928475 -0.12647 0.297747 -0.241071 0.15549 -0.235594 0.210453 -0.167775 0.290275 0.440023 0.269784 0.528217 0.164421 -0.0382704 0.324277 -0.410585 -0.538002 -0.251422 -0.148259 0.0824858 -0.210443 0.0972097 -0.115963 -0.0521769 0.0102872 -0.0378944 -0.55349 0.156096 -0.02547 0.185827 0.205997 -0.393409 -0.00479857 0.454723 0.0566175 0.135698 -0.0960312 -0.105078 0.104536 -0.0621259 -0.205318 0.00251525 -0.0139846 -0.271958 0.192257 0.108188 0.0148864
674 -0.0742223 0.19386 -0.0141601 0.000713324 0.0542973 0.00550358 0.0258487 0.0614044 0.000394412 -0.182747 -0.0228086 0.00634361 -0.0297381 0.127476 0.015772 0.0621849 -0.206732 -0.00318269 -0.0619293 0.175948 -0.0119291 0.000242741 0.0051437 -0.0251758 -0.133627 0.0541648 -0.0320294 0.0759579 0.0738131 -0.0418913 0.0844933 0.009899 0.112272 0.00197127 0.0691054 0.0196426 0.00720988 0.19963 0.0333733 0.0901696 -0.0516448 0.0545488 -0.0701721 0.0624049 -0.0494475 -0.0196621 0.328948 0.211765 -0.0745084 -0.198233 0.0975521 -0.129917 -0.0708662 0.0557716 0.0807025 -0.163505 0.292185 -0.291044 0.00837913 -0.0803315 0.121878 -0.075537 0.0852231 0.0454747 0.147829 -0.121748 -0.0725951 -0.272799 0.0533225 0.129312 -0.151855 0.0362896 0.36742 -0.221775 0.0249167 -0.0610911 0.130634 -0.187672 0.208883 0.171742 -0.0380066 -0.282848 -0.0825853 -0.220453 -0.209776 -0.00270905 0.114153 0.0963988 0.281545 -0.177259 0.141819 -0.513339 0.285107 0.207023 -0.137867 -0.180631 0.0382159 -0.194478 -0.00767662 0.000217978 0.129986 -0.015167 -0.157847 -0.102704 0.198514 -0.0969256 0.331007 -0.0932915 0.0408858 -0.0148752 0.0661852 -0.155064 -0.471019 -0.395931 0.359942 -0.134217 0.303838 0.0665645 0.124182 -0.273922 0.0434806 -0.177482 -0.0946878 0.560058 -0.0978862 -0.165985 0.451832 0.18828 0.18173 0.00458997 -0.226723 -0.370148 -0.0871232 0.0851501 0.123881 -0.587075 -0.0793124 0.327095 -0.18646 0.132627 -0.123216 0.0787488 -0.115161 0.24374 0.582726 0.326743 0.519439 0.22432 -0.0142593 0.488137 -0.388975 -0.480594 -0.332099 -0.147349 0.146093 -0.350059 0.0273216 0.0511519 -0.224064 0.0947621 -0.0248936 -0.573077 0.16053 -0.0770941 0.193788 0.146736 -0.304263 0.00602664 0.477965 0.0860633 0.198402 0.0202484 -0.137861 0.149171 -0.0418495 -0.187545 -0.0385469 -0.119468 -0.489475 0.251843 0.203574 0.0997783
704 0.101395 -0.200408 0.0121404 0.0243258 -0.0198371 -0.011372 0.111114 0.0313652 0.0153205 -0.010926 0.0267001 -0.0423549 -0.0593708 0.0824961 0.0396338 0.0323801 -0.197852 0.0211033 -0.0148065 -0.0516201 0.0528346 0.0262696 -0.0284111 -0.0775096 0.028797 0.0460351 0.0415672 -0.0179271 0.0214172 0.045728 0.193046 -0.00713816 0.197861 -0.0639443 -0.0550188 0.17621 -0.0149693 0.0830742 -0.0141594 0.0504031 -0.0427351 0.212925 -0.0955496 -0.0215827 0.0581484 0.138498 0.304804 0.205341 -0.0147525 -0.286296 0.00434523 0.0041662 -0.00030806 0.0258711 0.0431275 -0.0158848 0.213168 -0.318244 -0.0490049 -0.0245553 0.161742 -0.139165 0.10209 0.0414494 0.147377 -0.045844 -0.027255 -0.184545 -0.0144688 0.0164709 -0.0482883 0.0326326 0.190093 -0.131435 -0.0154149 0.00692481 0.10199 -0.171217 0.170394 0.0873443 -0.0689684 -0.36682 -0.0576398 -0.186799 -0.203296 -0.0317469 -0.0111345 0.101437 0.242886 -0.232671 0.0670633 -0.317034 0.822824 0.542125 -0.261558 -0.116974 0.0205215 -0.343213 0.103921 -0.0472394 0.0624365 0.0827761 -0.151373 -0.0659245 0.162664 -0.16321 0.224171 -0.064657 -0.0764888 0.0423227 0.198468 -0.198752 -0.359374 -0.378904 0.337449 -0.201983 0.300922 0.109169 0.200702 -0.364395 0.0561993 -0.12785 -0.0840884 0.492947 -0.134868 -0.323031 0.495934 0.171445 0.161801 0.0119446 -0.178271 -0.356827 -0.0514131 0.0653986 0.0987686 -0.600756 -0.212567 0.29369 -0.153893 0.130804 -0.193572 0.238147 -0.235019 0.302804 0.429551 0.233089 0.504138 0.234118 0.0089598 0.41688 -0.43053 -0.472148 -0.210246 -0.151136 0.0395146 -0.449202 0.165633 -0.142748 -0.124289 0.0988154 -0.0568709 -0.651657 0.11286 -0.0310418 0.0889159 0.168456 -0.373288 -0.0546557 0.470298 0.184627 0.191509 -0.105592 -0.168893 0.10102 -0.0295439 -0.233952 -0.00731661 -0.0579747 -0.317915 0.173369 0.0972559 0.0565862
331 0.170458 -0.144213 -0.108066 -0.117527 0.00230774 0.137922 0.0256142 0.0513394 -0.0207476 0.140347 0.0153476 -0.021851 -0.0170701 0.0882727 0.0435591 0.148993 -0.0546804 -0.0582388 -0.0525779 0.148535 -0.0625416 0.0332752 0.0619819 0.0189375 -0.101041 0.0573563 -0.0770556 0.0207495 0.12884 -0.0509973 0.116125 -0.143329 0.0240163 -0.00858551 -0.125362 0.262129 -0.119212 0.220261 0.00330755 0.0665745 -0.0343822 0.0175023 0.0664336 0.0271251 -0.0615513 -0.0141132 0.152331 -0.0641633 -0.0153271 0.121901 0.18285 -0.403681 -0.131749 -0.0495133 -0.0588606 -0.0211308 0.180842 -0.201786 -0.0738098 -0.113387 0.210587 0.0819688 0.174821 0.0237802 0.00888433 -0.127078 0.00927776 -0.229101 0.0623049 0.205207 -0.196136 -0.032088 0.179313 -0.155796 0.0814523 -0.0339441 -0.00776877 -0.316187 0.161396 0.0854873 -0.0924687 -0.0397273 -0.214985 -0.296499 -0.165645 -0.0315509 0.110551 0.203228 0.354096 -0.329264 0.148424 -0.42797 0.531736 0.315135 -0.137025 -0.180397 0.0249056 -0.157751 0.0900185 -0.0674057 0.217275 -0.10112 -0.296153 -0.22914 0.270989 -0.158886 0.344954 -0.0256411 -0.0655444 0.0977497 0.194539 -0.30984 -0.186744 -0.107333 0.332411 -0.187036 0.212781 0.00182581 0.00227081 -0.216197 -0.00397143 -0.27498 -0.0192747 0.351958 -0.228688 -0.242056 0.353786 0.186029 0.0556451 -0.0953698 -0.168741 -0.41446 -0.0723374 0.088986 0.182252 -0.827392 -0.101239 0.458251 -0.155741 0.0477378 -0.0926903 0.256713 -0.179374 0.145218 0.25713 0.100176 0.482391 0.259115 -0.0154056 0.469828 -0.40889 -0.34616 -0.191686 -0.0416964 -0.0246491 -0.486952 0.0640456 -0.238685 -0.242651 -0.034007 -0.13487 -0.356215 0.190877 -0.157776 0.152275 0.19287 -0.49361 0.105781 0.424497 0.35899 0.332579 -0.0127176 -0.281643 0.256164 -0.163879 -0.301465 0.152201 -0.0676441 -0.356124 0.275906 0.259555 0.0583873
39 0.149441 -0.104895 -0.107301 -0.0319892 -0.0548662 0.162614 -0.170364 0.0283132 0.00826809 0.0947356 0.0498275 0.0118663 0.0651841 -0.0706239 -0.00802763 0.117979 -0.321392 -0.0855178 -0.0368021 0.247821 -0.190626 0.0188316 0.133817 -0.0597816 -0.107064 0.240679 0.047457 0.115663 0.176958 -0.0792448 -0.0201984 -0.131949 0.171246 -0.13917 -0.147166 0.260171 -0.142013 0.278765 0.0571108 0.131458 -0.0604652 0.152945 -0.184567 0.0739127 -0.0300888 -0.0535254 0.236205 0.0198317 -0.0105009 -0.111369 0.157237 -0.272046 -0.0311889 -0.0648149 0.0453574 -0.0492577 0.114503 -0.212679 -0.238968 -0.280622 0.27256 0.0811015 0.0933691 0.0228877 0.00806109 -0.0518456 0.056711 -0.0735278 0.0532935 0.118437 -0.175204 -0.000153571 -0.0338768 -0.0499316 0.0683567 -0.0277129 -0.0576796 -0.0720187 0.0467369 0.03639 -0.0772767 -0.174657 -0.0582028 -0.0807712 -0.0585711 -0.012875 0.0693709 0.181174 0.149585 -0.110229 0.0751008 -0.518616 0.364838 0.134964 -0.102421 -0.143879 -0.0453451 -0.379927 -0.00263103 -0.0613453 0.157319 -0.0273563 -0.310755 -0.165933 0.239288 -0.121403 0.4939 -0.155289 -0.0232047 0.081968 0.320056 -0.314307 -0.484995 -0.383198 0.313867 -0.152553 0.379717 0.00058759 0.0390859 -0.263504 -0.0290698 -0.179378 -0.105673 0.715933 -0.221112 -0.277539 0.517953 0.204925 0.193123 0.00539574 -0.232993 -0.421717 -0.0289067 0.069967 0.237549 -1.13094 -0.147991 0.542473 -0.480013 0.360022 -0.178413 0.300365 -0.241626 0.294739 0.531787 0.264101 0.414243 0.189271 -0.0385556 0.579475 -0.358949 -0.387537 -0.101842 0.034192 0.100721 -0.539587 0.0978182 -0.197448 -0.146171 0.0246679 -0.0968654 -0.242392 0.0524605 -0.0846468 0.154556 0.166096 -0.291514 0.0550987 0.313764 0.168861 0.289533 -0.0759933 -0.2389 0.213751 -0.110193 -0.206596 0.0646371 -0.114881 -0.363396 0.291596 0.247245 0.0322644
273 0.0994955 -0.135726 -0.0224308 -0.0561513 -0.058673 0.196223 -0.144 0.0168493 -0.0623651 0.197014 0.081301 -0.0612224 -0.0424987 0.0801078 0.057562 0.179836 -0.0139534 -0.0413389 0.00191796 0.132314 -0.0770735 0.0540143 0.164141 -0.0150902 -0.139158 0.258699 -0.0496974 0.0545831 0.229173 -0.0322361 0.265442 -0.172264 -0.0217024 0.034226 -0.113811 0.163848 -0.0819184 0.074176 -0.0349439 0.0654907 -0.0354475 -0.0102582 0.0249091 0.055463 -0.0459455 0.0340555 0.195287 0.0394681 -0.0587833 0.179106 0.105298 -0.157681 -0.0274857 -0.0363395 -0.0925547 0.0230828 0.100581 -0.121609 -0.0913218 -0.151842 0.222974 0.0604803 0.262547 0.0719317 0.0866936 -0.162871 -0.0606113 -0.220376 0.044866 0.0983542 -0.196336 0.029987 0.198889 -0.127211 0.0617979 -0.0569847 0.0470617 -0.28278 0.191258 0.0811775 -0.0681762 -0.0641685 -0.164561 -0.19453 -0.0347405 -0.050365 0.0561467 0.141632 0.29518 -0.309109 0.141409 -0.554258 0.743451 0.385334 -0.299611 -0.186122 -0.00279935 -0.391711 0.128378 -0.0588592 0.145535 -0.0582793 -0.284274 -0.144803 0.246465 -0.115431 0.36935 -0.0753238 -0.0968088 0.0630628 0.239883 -0.330032 -0.186986 -0.130062 0.257903 -0.131869 0.135764 -0.00308202 -0.0319356 -0.0787011 0.0254632 -0.164475 -0.0621335 0.288176 -0.22847 -0.287702 0.5921 0.265552 0.0838384 -0.0097428 -0.208857 -0.496661 -0.0262058 0.0805596 0.180643 -0.902644 -0.118915 0.51251 -0.271807 0.135758 -0.196978 0.368556 -0.361436 0.342907 0.457883 0.147489 0.517187 0.308552 0.00895017 0.511991 -0.421402 -0.315469 -0.105146 -0.0369519 0.0174124 -0.416452 0.0862735 -0.213948 -0.230269 -0.0559976 -0.124635 -0.352696 0.149416 -0.114608 0.158944 0.150867 -0.465097 0.0962496 0.3062 0.305869 0.29624 -0.00313926 -0.254148 0.25119 -0.170609 -0.351434 0.168429 -0.0644251 -0.21816 0.154307 0.215706 0.0708118
195 0.195119 -0.103574 -0.0631881 -0.0722473 -0.0335171 0.18485 -0.0955756 0.0265166 -0.0943702 0.305176 0.243253 -0.0898452 -0.072209 0.133743 0.116668 0.116181 -0.0479656 -0.0176381 -0.0437264 0.147733 0.0227713 0.0985039 0.0263023 0.058572 -0.147044 0.194906 -0.0181947 0.0376355 0.129534 -0.0209099 0.246211 -0.123735 0.0779792 -0.0999755 -0.167398 0.174745 -0.079573 -0.039083 -0.0589594 -0.0469341 -0.0130287 0.018101 0.0179279 0.0228017 -0.0940276 -0.0849219 0.00511947 -0.0736045 -0.0511289 -0.115313 0.102218 -0.317711 -0.0142968 -0.0592663 -0.0498848 -0.0337546 0.0566011 -0.0793094 -0.0715803 -0.143039 0.136158 0.0564179 0.172352 0.0534169 0.16227 -0.186366 -0.0410553 -0.288799 0.0614399 0.287045 -0.206399 0.01473 0.279844 -0.283832 0.0486972 -0.108622 0.0256288 -0.181501 0.214163 0.0736345 -0.0572613 -0.273592 -0.156856 -0.324938 -0.154586 0.0250654 0.0499396 0.133782 0.302933 -0.345532 0.133489 -0.55736 0.35172 0.188933 -0.276091 -0.215443 0.0335081 -0.498646 0.120604 -0.057239 0.149078 -0.118903 -0.232378 -0.134649 0.214741 -0.127432 0.542243 -0.179844 -0.0791186 0.121571 0.202392 -0.260973 -0.18221 -0.145719 0.18058 -0.0500348 0.131243 0.0668983 0.0713233 -0.221842 -0.00364579 -0.141908 -0.103845 0.494173 -0.202896 -0.221136 0.48643 0.255652 0.134181 0.0187117 -0.124487 -0.372544 -0.0114139 0.0232901 0.14357 -0.615492 -0.147094 0.310688 -0.391259 0.278238 -0.0968898 0.19239 -0.341934 0.288772 0.574082 0.231432 0.649631 0.350323 -0.0412932 0.600933 -0.44996 -0.46156 -0.279629 -0.0656746 0.0399997 -0.505091 0.0690618 -0.197289 -0.240281 0.000612503 -0.115655 -0.486898 0.181871 -0.175754 0.0824497 0.109084 -0.401009 0.0625968 0.274233 0.244844 0.298148 0.034895 -0.15781 0.132921 -0.129821 -0.16724 0.111116 -0.0698391 -0.293048 0.256342 0.125096 0.0221817
568 -0.0484015 0.0352976 0.00882024 -0.0498305 -0.111569 0.205019 -0.11213 -0.0486904 -0.0178471 0.105186 -0.0331369 0.0223286 -0.0755132 0.0447326 0.0996828 -0.0345017 0.0014786 -0.0281395 0.0151005 0.0827653 0.0245472 0.0679606 0.0794137 0.0648753 0.00723981 0.164707 -0.00156159 0.038384 -0.0381111 0.0407955 -0.060277 -0.0221834 -0.0139044 -0.0733162 -0.0684089 0.0509976 -0.0223822 0.0260387 0.0417656 0.0388473 0.0438716 -0.0444223 0.0225142 -0.0567766 0.0188365 0.0524721 0.0964367 0.00120028 0.0465457 -0.152925 0.0896845 -0.288349 -0.0807225 0.0278836 0.0949662 -0.0522372 0.109914 -0.106461 -0.126906 -0.109494 0.126098 0.0865865 0.205875 0.1167 0.176579 -0.173957 0.000916728 -0.302229 0.0894038 0.294744 -0.249405 0.0942805 0.200877 -0.137284 0.0278977 -0.0907268 0.017222 -0.245708 0.112897 0.0259906 -0.0375402 -0.260476 -0.205276 -0.276431 -0.174103 -0.0623391 0.0527896 0.103113 0.333621 -0.335565 0.0606947 -0.435527 0.516062 0.328529 -0.249288 -0.133469 0.0957669 -0.585095 0.122776 -0.104296 0.204774 0.08594 -0.252522 -0.0923841 0.212786 -0.0551914 0.331955 -0.119404 -0.11082 0.134237 0.248043 -0.157315 -0.278001 -0.334285 0.28589 -0.143791 0.35041 0.0726251 0.0984436 -0.265299 -0.0228715 -0.106863 0.0228539 0.335678 -0.0420761 -0.190216 0.386359 0.166794 0.130744 0.0954255 -0.210264 -0.50557 -0.0435161 0.0285808 0.192199 -0.671453 -0.16559 0.471281 -0.336975 0.287431 -0.0901757 0.156676 -0.249296 0.198484 0.322195 0.203433 0.603605 0.232213 0.0607887 0.638054 -0.286479 -0.422923 -0.19073 -0.154457 0.0947579 -0.440839 0.0995171 -0.169687 -0.145397 0.0719918 -0.0906021 -0.519879 0.100087 -0.10385 0.0495855 0.268698 -0.341492 0.0525752 0.271101 0.224731 0.226066 -0.0935909 -0.246471 0.10686 -0.122015 -0.268396 0.0719342 -0.0282007 -0.27432 0.264639 0.27629 0.00982089
579 -0.00930078 -0.0194155 -0.00165093 -0.0184377 -0.0940651 0.144058 -0.0811165 -0.0569954 -0.0438188 0.0423687 -0.106478 0.0481826 -0.0098574 -0.0734 0.016722 0.0130742 0.0786935 -0.0458548 0.0236157 -0.00645001 0.0130377 0.0839658 0.150027 -0.0178867 0.0111252 0.155297 -0.0259741 0.0234051 -0.0363455 -0.0145393 -0.14076 -0.0277875 -0.0334759 -0.058315 -0.0394751 -0.0157209 -0.00309808 0.0432944 0.144292 0.214325 -0.019942 0.181014 -0.041546 -0.0284956 0.0631648 0.0935557 0.30875 0.0938053 0.102515 -0.236926 0.172596 -0.459565 -0.0789268 0.00956409 0.199985 -0.167417 0.196164 -0.237986 -0.156774 -0.105915 0.128184 0.0781023 0.177336 0.112726 0.0824831 -0.0766847 0.0198415 -0.229062 0.0525355 0.180163 -0.215325 0.0678127 0.10616 -0.081712 0.0353719 -0.084972 -0.0109643 -0.263748 0.0847822 -0.0190904 -0.0340491 -0.224405 -0.18015 -0.251339 -0.0880355 -0.0748194 0.0382407 0.164478 0.314606 -0.304804 0.0454562 -0.38439 0.649643 0.376615 -0.230745 -0.119786 0.0497185 -0.447234 0.112829 -0.0437476 0.149277 0.0467854 -0.289173 -0.0909331 0.219731 -0.0289026 0.217572 -0.0117389 -0.114041 0.139988 0.288967 -0.236507 -0.352416 -0.351908 0.32085 -0.153444 0.286222 0.0401389 0.109492 -0.273857 0.00707555 -0.125428 0.055436 0.357431 -0.115579 -0.208015 0.409575 0.195271 0.157722 0.0894456 -0.256282 -0.558232 -0.0234967 0.0763319 0.240009 -0.96659 -0.145813 0.493831 -0.264029 0.202841 -0.103913 0.2182 -0.315241 0.289936 0.45801 0.250124 0.628741 0.270604 0.068915 0.477321 -0.309106 -0.423336 -0.101166 -0.113699 0.0641964 -0.411964 0.0753218 -0.193017 -0.129011 0.0430207 -0.0795414 -0.398145 0.0774245 -0.0642918 0.081282 0.205585 -0.374439 0.0415746 0.210989 0.217198 0.196079 -0.0522312 -0.171413 0.107498 -0.135395 -0.288483 0.0987078 -0.0216265 -0.196941 0.228789 0.239327 0.0386791
383 -0.0216003 -0.0746432 0.0496913 -0.0217167 -0.144057 0.126576 -0.171325 -0.0434041 -0.0560827 0.0659179 -0.12214 0.0315415 -0.00860631 0.0382885 0.0911144 -0.0538414 0.0768084 -0.0209379 0.00654068 -0.0350804 0.103563 0.107227 0.103465 0.0109771 0.0873028 0.0518975 -0.0461373 0.0222341 -0.12494 0.0555247 -0.204675 0.0195833 0.0139652 -0.15714 -0.0647264 -0.0389424 0.0180833 -0.0725211 0.14449 0.1574 -0.0296642 0.238685 -0.0770809 -0.0650877 0.0565972 0.104163 0.271945 0.0766864 0.0912919 -0.208557 0.0532244 -0.257829 -0.0952998 0.00879987 0.218701 -0.166474 0.145953 -0.13641 -0.0827167 0.0143559 -0.0357928 0.082734 0.0963641 0.13803 0.11275 -0.0679501 0.0382408 -0.153268 0.05654 0.1233 -0.247804 0.0929366 0.237071 -0.125857 0.00345618 -0.0949096 0.0561898 -0.272408 0.0661492 -0.00592227 -0.0217465 -0.264794 -0.194689 -0.251589 -0.0961282 -0.0730492 0.0493998 0.163556 0.326434 -0.336074 -0.00234011 -0.300845 0.407213 0.324868 -0.179063 -0.0778778 0.109108 -0.404168 0.0582887 -0.0705626 0.0873639 0.0898689 -0.227322 -0.0462448 0.276981 -0.0290322 0.269228 -0.0697811 -0.108361 0.159442 0.386186 -0.228912 -0.306316 -0.397112 0.263489 -0.141115 0.242562 0.0470085 0.156984 -0.302158 -0.00212498 -0.137533 0.0341197 0.27963 -0.058209 -0.212648 0.378679 0.0904675 0.124265 0.118701 -0.183743 -0.438561 -0.0432923 0.0184873 0.229141 -0.900208 -0.171721 0.56643 -0.336486 0.293247 -0.104964 0.183619 -0.394411 0.301012 0.416861 0.28771 0.654772 0.228253 0.0248316 0.48317 -0.29528 -0.534841 -0.237329 -0.164071 0.0613709 -0.368562 0.0365876 -0.167771 -0.111431 0.077425 -0.0740701 -0.37482 0.0238014 -0.0442257 0.0269619 0.177437 -0.370331 0.00627719 0.264658 0.143529 0.110561 -0.0560905 -0.193853 0.0396198 -0.11923 -0.213389 0.00622382 -0.0364653 -0.172831 0.218964 0.192433 -0.0130006
596 0.0162757 0.0140297 0.00690178 -0.0183797 -0.141168 0.206589 -0.171177 -0.0800895 -0.0309432 0.163658 -0.0240544 0.0386396 0.029254 0.094574 0.0612922 0.0132534 0.10484 -0.0519284 0.0234452 0.0116359 0.036591 0.0810386 0.0669149 -0.00522855 -0.0126081 0.131993 0.00577692 0.0549096 -0.00200939 0.0423891 -0.0767283 0.000991254 -0.0302241 -0.0532299 -0.054439 -0.0136156 -0.0103573 0.00609834 0.0615396 0.0736521 -0.019828 0.157489 0.00583637 -0.00241815 0.0221573 0.0458814 0.231721 0.0543588 0.0112731 -0.0885606 0.0907447 -0.297437 -0.0833697 0.0113609 0.16636 -0.116624 0.207179 -0.236073 -0.146998 -0.108707 0.125619 0.0586615 0.184557 0.117183 0.0760867 -0.0415737 0.0284099 -0.236026 0.0911724 0.18779 -0.203013 0.0503289 0.224593 -0.158762 0.00715428 -0.0700844 0.0181344 -0.264954 0.1178 -0.0177332 -0.0161634 -0.234785 -0.195706 -0.258547 -0.128496 -0.0269473 0.0382337 0.155119 0.340923 -0.339259 0.0473855 -0.370272 0.570511 0.354037 -0.230616 -0.125496 0.0528189 -0.43456 0.114437 -0.0603713 0.155021 0.0894866 -0.273273 -0.101303 0.261079 -0.061688 0.370755 -0.0783292 -0.11197 0.13112 0.307947 -0.200353 -0.344878 -0.357929 0.328401 -0.186842 0.322542 0.055707 0.122462 -0.291784 0.010975 -0.160826 0.0234489 0.367089 -0.116903 -0.23493 0.464479 0.162487 0.125476 0.0739905 -0.19809 -0.469816 -0.0195418 0.0413439 0.185362 -0.644581 -0.136351 0.447178 -0.295139 0.244762 -0.0788499 0.201867 -0.299541 0.228625 0.296842 0.190524 0.545213 0.247958 0.0294482 0.478897 -0.312782 -0.426864 -0.242167 -0.157099 0.0807761 -0.492956 0.102255 -0.237709 -0.106272 0.0260533 -0.10404 -0.432066 0.0800341 -0.0945319 0.0389584 0.214084 -0.37413 0.0136258 0.289489 0.266671 0.218858 -0.0688078 -0.232077 0.115 -0.126055 -0.30731 0.100043 -0.0133719 -0.248371 0.258626 0.318092 0.0265277
542 0.0395406 -0.0603743 0.00249857 -0.0169832 -0.103321 0.124598 -0.088401 -0.0227635 0.00309308 0.0536731 0.0153398 -0.0311205 -0.00911963 0.134753 0.0393326 0.00376895 0.0971351 -0.0106919 0.0106441 -0.0772983 0.0120101 0.0207532 0.0121938 -0.00955764 0.0234908 0.0890441 0.00824777 -0.0125805 -0.0404965 0.0703467 -0.09152 0.0388988 0.0569278 -0.0546161 -0.11906 0.0539476 -0.0112213 0.0415158 0.0501624 0.0720599 -0.0251023 0.199195 0.0572411 0.000996527 0.0304941 0.00868887 0.158873 0.034662 -0.00103478 -0.130359 0.0716761 -0.283454 -0.0937952 0.0614362 0.156013 -0.13413 0.191556 -0.207719 -0.109845 -0.0395475 0.0728195 0.073046 0.0888655 0.0801814 0.071043 -0.00787359 -0.0125651 -0.142971 0.0644309 0.163687 -0.103728 0.0373016 0.241355 -0.137166 0.00587773 -0.041187 0.0582449 -0.219615 0.0923649 0.013086 -0.0189766 -0.290872 -0.205645 -0.286106 -0.219187 -0.0328529 0.00927653 0.11511 0.267505 -0.308895 0.04092 -0.323336 0.379818 0.239734 -0.178296 -0.0752192 0.00406838 -0.419333 0.0745519 -0.117226 0.142686 0.125943 -0.221624 -0.0744138 0.339004 -0.113588 0.403412 -0.105685 -0.0840452 0.107497 0.247104 -0.182799 -0.383458 -0.432248 0.387952 -0.195165 0.372044 0.0667127 0.150999 -0.297726 0.000756772 -0.129453 0.0297485 0.45661 -0.0446168 -0.215581 0.336505 0.149778 0.161025 0.121608 -0.245717 -0.584161 -0.0225095 0.0545957 0.129908 -0.697066 -0.193521 0.582365 -0.333894 0.28479 -0.103686 0.214285 -0.276716 0.272344 0.391534 0.248914 0.60063 0.243347 -0.00538755 0.630041 -0.339868 -0.477796 -0.294254 -0.1618 0.0417529 -0.385674 0.062383 -0.136566 -0.0716513 0.0231339 -0.0518518 -0.299939 0.0844495 -0.0461832 0.0665118 0.266705 -0.309793 0.0246252 0.286176 0.221031 0.174485 -0.0622426 -0.141907 0.0406203 -0.0889637 -0.118648 0.0746662 -0.0288439 -0.231415 0.246979 0.242639 0.0191181
884 0.0329935 -0.120013 -0.0213348 -0.0247379 0.0266115 0.00703837 0.0253033 0.0525019 -0.011712 -0.0753977 0.0832228 -0.0559613 -0.0336146 0.310173 0.0469719 0.00074812 -0.176633 0.0525095 -0.0580313 -0.0123228 0.0181003 -0.0105778 0.0122607 0.0293501 -0.0303091 -0.0181415 -0.0203795 0.0572229 0.0888707 0.0237132 0.132945 0.0488081 0.15705 -0.0238683 0.0641023 -0.0800244 -0.010344 0.0291421 0.0816549 0.237243 -0.0243735 0.0226053 -0.0980322 0.0277472 0.0941593 0.0898371 0.250373 0.192614 -0.0268388 -0.39148 -0.0196375 0.0671831 0.032368 0.0366249 0.0528504 -0.185284 0.141946 -0.0459007 -0.0756192 -0.0486025 0.150543 -0.0923264 0.078111 -0.0121188 0.12951 -0.0854845 -0.0897874 -0.168444 0.0380916 0.0463674 -0.0878757 0.0535831 0.0790138 -0.0923005 -0.0418532 -0.0474277 0.133318 -0.189692 0.138473 0.0521359 -0.0747659 -0.417407 -0.106056 -0.244886 -0.281273 -0.0875425 0.0395806 0.112348 0.262984 -0.247904 0.100927 -0.580209 0.315483 0.213804 -0.101536 -0.0937103 -0.0377208 -0.482252 0.0416449 -0.0482069 0.230019 0.125281 -0.315323 -0.108049 0.149245 -0.0441891 0.492864 -0.166681 -0.0540532 0.0555015 0.169267 -0.142933 -0.576001 -0.483407 0.301651 -0.111128 0.365515 0.0822953 0.204776 -0.304058 -0.0636615 -0.125123 -0.0858555 0.430135 0.0131277 -0.166675 0.391358 0.140764 0.171577 0.0543343 -0.141279 -0.307502 -0.102373 0.0594639 0.116316 -0.724297 -0.0263143 0.259585 -0.232446 0.241946 -0.136736 0.165302 -0.117318 0.23456 0.610558 0.450358 0.35586 0.159206 -0.0310928 0.534752 -0.358565 -0.504102 -0.169101 -0.0597516 0.152164 -0.399616 0.0874271 -0.033982 -0.1753 0.0613852 -0.0173279 -0.533819 0.110394 -0.0501051 0.239255 0.211642 -0.445616 0.0275602 0.311572 0.0179302 0.188752 -0.10764 -0.180274 0.108071 0.0143778 -0.155664 -0.0459928 -0.158751 -0.29496 0.253643 0.22292 0.0317836
983 0.174757 -0.268867 -0.0540294 -0.0779444 -0.0119769 -0.0158494 0.00502212 0.0104887 0.00632222 0.00263296 0.0298945 -0.0565777 -0.0449606 0.00342164 0.0385642 -0.0150046 -0.280749 0.0419973 -0.0646516 -0.0444609 0.0412407 -0.00331096 -0.0167519 -0.0538533 -0.0695937 0.0783233 0.0302193 0.0063484 0.0579038 -0.0158531 0.195487 0.051132 0.206147 -0.0558735 -0.0580349 0.0693454 -0.0416972 0.00245242 0.0211065 0.0689312 -0.0811565 0.327097 -0.217995 -0.0467834 0.105414 0.0775599 0.263095 0.194139 0.0256542 -0.358554 -0.0213314 -0.00507585 0.0416382 0.00173759 0.0277618 -0.094375 0.249748 -0.268063 -0.0470121 -0.0521372 0.0505422 -0.113637 -0.0129756 0.0112973 0.131356 -0.0485583 -0.0484421 -0.163889 0.0203694 0.0766088 0.0250067 0.0290215 0.235995 -0.172047 -0.0426492 -0.0396737 0.14083 -0.0583686 0.0310227 0.0263496 -0.0936884 -0.353699 -0.0857208 -0.201979 -0.137606 -0.00707541 0.020392 0.0568681 0.218371 -0.165459 0.0545225 -0.513238 0.349972 0.253816 -0.149056 -0.0928349 -0.0459044 -0.406735 0.0266914 -0.0119526 0.10208 0.0816066 -0.220095 -0.098642 0.250147 -0.129071 0.491519 -0.155146 -0.0340882 0.0606085 0.121164 -0.175836 -0.436805 -0.455667 0.25618 -0.101067 0.229013 0.0615632 0.194688 -0.226252 0.00647676 -0.0966261 -0.0414218 0.590697 -0.0682846 -0.220546 0.476231 0.143478 0.259296 0.0688575 -0.301116 -0.552116 -0.0721278 0.0520068 0.148475 -0.985739 -0.163981 0.423502 -0.365961 0.317132 -0.186273 0.184439 -0.171628 0.301493 0.668788 0.403328 0.492753 0.184697 -0.0440888 0.50598 -0.235164 -0.370776 -0.211169 -0.12806 0.0549426 -0.410924 0.111408 -0.0318135 -0.144745 0.118344 -0.0228084 -0.651579 0.126241 -0.0130847 0.133978 0.13794 -0.15796 -0.0791589 0.319885 0.00290299 0.12452 -0.0740414 -0.0830962 -0.00663108 0.0341961 -0.0385198 -0.0258795 -0.0831176 -0.171026 0.172493 0.0891238 0.0335425
967 -0.0258488 -0.00794588 0.0766706 0.0399274 -0.00665613 0.0422871 -0.0151615 0.00816366 -0.00801941 -0.0407993 0.00497459 -0.0326175 0.0129661 0.0491487 0.0262612 -0.014469 -0.291844 0.0994303 -0.0060136 0.0427915 -0.0877286 -0.146052 -0.0775668 0.0393693 0.067754 -0.107882 -0.054673 -0.073236 0.0426848 0.0541674 0.264915 -0.0143477 0.205225 -0.0193773 0.07779 0.0779598 0.010769 0.105886 0.06257 0.0869573 -0.0676055 0.102365 -0.0489664 0.0348781 0.0284093 0.0197771 0.222338 0.177794 -0.0129398 -0.173506 0.0519962 -0.0141557 0.0236254 0.0238472 0.00269708 -0.0581038 0.116689 -0.135117 -0.0677553 -0.108359 0.196588 -0.0870975 0.145056 0.0749957 0.105408 -0.0612242 -0.0838587 -0.099926 -0.0267783 0.00488374 -0.0216475 0.0359229 0.138557 -0.0997629 0.0440028 -0.0151318 0.101454 -0.0711543 0.188907 0.0310591 -0.0337775 -0.429302 -0.0550205 -0.231798 -0.14203 -0.0374261 0.036116 0.0458647 0.203285 -0.130474 0.0506027 -0.46523 0.397111 0.217159 -0.267552 -0.188087 0.0113522 -0.42718 -0.0437725 -0.0366457 0.0807281 0.103508 -0.188355 -0.106525 0.147068 -0.0870201 0.251954 -0.156543 -0.0297023 -0.0599262 0.102393 -0.0779994 -0.381083 -0.311098 0.236341 -0.0709055 0.250411 0.0195471 0.233192 -0.261895 0.00506614 -0.138284 -0.128928 0.449672 -0.0639571 -0.174935 0.673817 0.218485 0.229803 0.0237083 -0.113792 -0.258838 -0.0407263 0.0612007 0.0886538 -0.694824 -0.150512 0.395613 -0.286944 0.235817 -0.13422 0.100707 -0.214065 0.269043 0.455377 0.280195 0.464268 0.173764 -0.0359856 0.519517 -0.311908 -0.432805 -0.296368 -0.108722 0.152789 -0.43825 0.211214 -0.0568987 -0.240423 0.0888102 -0.0433472 -0.507191 0.0461199 -0.052403 0.17839 0.237991 -0.34417 0.0117338 0.47207 0.0619215 0.16907 -0.103368 -0.182046 0.127891 -0.0238561 -0.242146 0.0107453 -0.0898133 -0.369537 0.256808 0.166306 0.0438215
845 0.144962 -0.231386 0.122708 0.00739753 0.0532883 -0.0279046 0.112597 0.0689604 0.0193126 0.0078367 0.0596082 -0.00941982 0.0721228 0.0919566 -0.0305189 0.0595252 -0.159688 0.0942355 -0.0725473 0.200549 -0.00475931 -0.0661712 -0.0816441 -0.0036534 0.0657863 -0.130961 -0.0298844 -0.0708965 -0.000639632 0.0487569 0.0902313 0.0575737 -0.100775 0.212062 0.00368208 0.131913 -0.00476191 0.0704265 0.00554125 0.0325116 0.0251182 0.109093 -0.0249315 0.0398406 -0.036155 0.0146346 0.170729 0.184975 -0.02378 -0.0567585 0.111309 -0.167425 0.0357613 0.0352575 0.0258043 -0.147972 0.243677 -0.265269 -0.0731605 -0.048548 0.32152 -0.206736 0.226726 0.0928062 0.120986 -0.0176895 -0.184992 -0.378168 0.0673619 0.122852 -0.0861501 0.0816519 0.261313 -0.177935 0.0286676 0.00284043 0.154582 -0.17725 0.201547 0.069683 -0.031132 -0.273447 -0.145088 -0.24092 -0.192572 0.0131509 0.0403507 0.0741209 0.279881 -0.213074 0.0203358 -0.422539 0.635407 0.391467 -0.253482 -0.204404 -0.0299044 -0.240745 0.0685897 -0.0937118 0.141668 0.097946 -0.096615 -0.0927542 0.0911982 -0.122834 0.291794 -0.132185 -0.0543852 -0.0728493 0.203699 -0.0746961 -0.338481 -0.28312 0.328931 -0.144502 0.206188 -0.0321136 0.244594 -0.368424 -0.00316746 -0.153005 -0.113836 0.403146 -0.111645 -0.245363 0.396389 0.157891 0.14803 -0.0288232 -0.101411 -0.291126 -0.0820865 0.0525707 0.109073 -0.485532 -0.124788 0.330809 -0.27212 0.233897 -0.17613 0.223266 -0.257697 0.307018 0.43882 0.255123 0.533277 0.277134 -0.0412942 0.358647 -0.387 -0.486759 -0.289769 -0.171717 0.153339 -0.493846 0.200654 -0.122795 -0.222091 0.0828565 -0.0720345 -0.578607 0.160563 -0.108065 0.179647 0.251926 -0.404276 -0.00309966 0.509709 0.11422 0.163577 -0.0817957 -0.154746 0.138923 0.0469677 -0.213961 -0.060761 -0.145782 -0.392733 0.245511 0.0932518 0.0276613
913 -0.0488756 0.191688 -0.0884743 0.0391685 0.00388956 0.0635966 -0.107463 0.0722688 -0.039127 0.0432699 0.0477872 -0.0281667 0.0414354 -0.263508 0.0236201 0.0589035 -0.174066 0.037244 -0.068201 0.168353 -0.205981 -0.151855 0.1588 0.0242868 -0.100481 -0.0896287 -0.0904198 -0.0584567 0.000672386 -0.058641 0.183769 -0.0637314 -0.0343675 0.143567 -0.00882442 0.13453 -0.065289 0.0794604 0.116428 0.0622321 0.048117 0.0159393 -0.077279 -0.0332491 -0.0879252 -0.04808 0.148514 0.0253644 0.104552 -0.192331 0.169035 -0.217726 0.00484716 0.0596285 0.00336528 -0.1779 0.162529 -0.172884 -0.0704705 -0.12374 0.324976 -0.0863203 0.168655 0.0595728 0.0229749 -0.0904677 -0.245563 -0.165067 0.0408568 0.11334 -0.163951 0.0814921 0.264733 -0.165787 0.0879021 -0.0651158 0.118318 -0.131269 0.114968 0.0685364 -0.052018 -0.300023 -0.0987328 -0.112123 -0.0768974 0.0703393 0.0932358 0.0974709 0.154498 -0.117855 0.105024 -0.587955 0.362007 0.259593 -0.327954 -0.16851 -0.000782124 -0.424105 0.0103073 -0.0739087 0.0812494 0.10332 -0.238151 -0.136359 0.136231 -0.136998 0.495343 -0.251193 -0.00640056 -0.115048 0.247901 -0.231467 -0.347014 -0.292128 0.290939 -0.103978 0.314349 -0.00520368 0.270947 -0.479912 -0.127801 -0.192692 -0.0282017 0.446324 0.0377545 -0.0916876 0.470202 0.126632 0.246076 0.00763767 -0.0898558 -0.268667 -0.0750236 0.0499939 0.105209 -0.803343 0.0988426 0.257704 -0.357158 0.224962 -0.0127757 0.0592351 -0.219895 0.212797 0.456457 0.290933 0.297091 0.058005 -0.0492785 0.281652 -0.285556 -0.379811 -0.184022 -0.0358612 0.0557376 -0.288455 0.164812 -0.0277323 -0.170585 -0.00404408 -0.0593568 -0.362199 0.150798 -0.0423834 0.172849 0.283948 -0.430707 0.0578264 0.226993 0.08898 0.106267 -0.111078 -0.10867 0.144573 0.0524969 -0.157687 0.0254679 -0.129236 -0.379526 0.345232 0.168966 -0.0114999
687 0.152544 -0.0993822 0.0888392 0.00759211 -0.0561375 0.0301923 0.0333096 0.0050605 -0.00450761 -0.0503374 -0.119724 0.00849405 0.125701 -0.200161 0.00500408 -0.024877 -0.232962 0.0684753 -0.0750975 0.071026 -0.0729947 -0.0354085 0.0386693 -0.0157929 -0.0328723 0.0357817 0.0203614 0.00591609 0.035991 -0.0272685 0.146407 0.00836311 0.0622002 0.0784893 -0.0387949 0.055728 0.0230575 0.0375864 0.162664 0.166003 0.032289 0.225571 -0.207015 0.00386471 0.119 0.039827 0.096142 0.0855202 0.0768772 -0.224687 0.0224622 -0.0758543 0.0618028 0.0443545 0.172853 -0.287149 0.0816937 -0.120105 -0.0845252 -0.108049 0.244941 -0.197626 0.131048 0.133128 0.133307 0.0323044 -0.156112 -0.170111 0.0234036 -0.00618572 -0.131262 0.061181 0.21291 -0.135809 -0.01952 -0.0644098 0.220434 -0.0798303 0.0404832 0.0197466 -0.00950908 -0.373165 0.0343771 -0.130364 -0.0964389 0.0327724 0.0497326 0.138955 0.131672 -0.133508 0.02818 -0.520759 0.598793 0.301484 -0.289935 -0.184528 -0.00022703 -0.46347 -0.0476824 -0.0697923 0.0558741 0.0788626 -0.231624 -0.15944 0.102127 -0.0588947 0.30843 -0.116097 -0.0447122 -0.0368482 0.238057 -0.0710986 -0.474461 -0.390658 0.318966 -0.121573 0.259423 -0.00699824 0.379908 -0.550342 -0.0401073 -0.125009 -0.11413 0.610475 -0.0301038 -0.145398 0.57471 0.151071 0.238818 0.0884601 -0.187356 -0.421826 -0.051733 0.025929 0.0959862 -0.790018 -0.0838961 0.304092 -0.383665 0.287324 -0.190707 0.172666 -0.206818 0.245028 0.306511 0.241752 0.393912 0.144221 -0.0343068 0.289216 -0.203554 -0.363277 -0.188562 -0.0101184 0.0535531 -0.0773731 0.13229 -0.0724034 -0.0820091 0.0126124 -0.064784 -0.385514 0.126474 -0.0999563 0.0830041 0.248411 -0.418166 0.0700694 0.440153 0.0952647 0.201443 -0.173479 -0.247278 0.17761 -0.0800906 -0.148524 -0.00574198 -0.0907363 -0.306283 0.378153 0.235866 0.0110087
705 0.0714198 -0.00792886 0.0971952 -0.0615785 -0.0334989 -0.0632938 0.00198383 0.0335969 -0.0229518 0.0116967 -0.00931064 -0.0493781 0.0577227 0.1428 0.05377 -0.0316069 -0.191925 0.0729098 -0.0136879 -0.0537207 0.0146449 -0.0615097 -0.0232698 -0.0563122 -0.0252328 -0.0901244 0.00781529 0.0228837 0.12815 0.0358119 0.11777 0.000900922 0.160078 -0.07094 -0.0518942 0.0391504 -0.00662029 0.0713951 0.155847 0.15352 -0.0438465 0.173406 -0.0805466 -0.0120413 0.0966346 0.0483745 0.207091 0.0732497 0.0488808 -0.0811867 -0.0525462 0.00498224 -0.00197863 -0.0124018 0.170421 -0.156628 0.117145 -0.0885 0.0143076 -0.0424113 0.357289 -0.223597 0.0777974 0.142811 0.0966656 0.00894475 -0.0774859 -0.158549 0.0767503 0.153685 -0.16466 0.0179669 0.247224 -0.20776 -0.0214663 -0.0873763 0.252398 -0.140356 0.0414471 0.00575491 0.0408077 -0.286052 -0.0224422 -0.10795 -0.0155209 0.00191956 0.0282796 0.0978356 0.0817651 -0.0573604 0.0544696 -0.333329 0.649074 0.389375 -0.171893 -0.0477255 0.043585 -0.420266 -0.00752614 -0.0229861 0.019513 0.0891562 -0.16758 -0.110475 0.152958 -0.0496949 0.184047 -0.0642364 0.0332662 0.0256221 0.123198 -0.0706795 -0.258124 -0.246792 0.195691 -0.0851311 0.250581 0.00675457 0.245825 -0.300206 0.00158431 -0.111988 -0.0335439 0.453359 -0.0931881 -0.244199 0.550396 0.159552 0.19612 0.102376 -0.245361 -0.444333 -0.0129705 0.0262454 0.0826011 -0.821355 -0.109776 0.385059 -0.306637 0.273343 -0.13254 0.19766 -0.218685 0.253131 0.330314 0.302243 0.600655 0.150072 -0.0189462 0.444183 -0.161912 -0.371581 -0.30137 -0.0900411 0.0689794 -0.375393 0.146721 -0.231764 -0.146567 0.0886564 -0.0771323 -0.579155 0.0997309 -0.084151 0.198941 0.366612 -0.399938 -0.043975 0.469818 0.0600617 0.132885 -0.126296 -0.252709 0.0603755 -0.021773 -0.188206 -0.0121409 -0.0779936 -0.368087 0.423335 0.273959 0.00163964
429 0.0407228 -0.0808644 0.0461852 -0.0244184 -0.0682025 0.0224045 -0.0742176 -0.0458517 -0.0554765 0.0973748 -0.05145 -0.0106195 -0.00960578 0.0179961 0.0887505 -0.0490932 0.136008 -0.0301574 0.0147996 -0.0648376 0.0898666 0.0814355 0.0750377 -0.0143004 0.0204913 0.191284 -0.00603938 0.0781948 -0.0304997 0.0518668 -0.0709729 0.00604123 0.0711344 -0.11891 -0.144389 0.0512176 0.0174524 -0.0769917 0.119654 0.130022 -0.0111467 0.190861 -0.064305 -0.0505319 0.0525744 0.0407768 0.279199 0.108993 0.105777 -0.281946 0.0339315 -0.305925 -0.0657052 0.0203762 0.210296 -0.11229 0.129242 -0.138867 -0.133143 -0.0539572 0.0351033 0.0796209 0.184838 0.164714 0.122978 -0.0338989 0.00180215 -0.280938 0.0743101 0.202558 -0.25059 0.0911675 0.31942 -0.161931 -0.0230545 -0.116393 0.0429551 -0.25112 0.0641625 -0.0385448 -0.0148144 -0.360556 -0.221457 -0.26943 -0.146437 -0.069556 0.0351454 0.119343 0.303568 -0.354799 0.0156289 -0.328197 0.534771 0.383509 -0.247549 -0.0637909 0.104678 -0.558712 0.125 -0.0909808 0.0931135 0.18013 -0.217385 -0.0461312 0.230662 -0.0157515 0.331273 -0.0792225 -0.0896282 0.148429 0.349816 -0.152326 -0.36998 -0.425183 0.40924 -0.202645 0.365544 0.0949941 0.148659 -0.338055 -0.00493211 -0.139475 0.0767772 0.415246 -0.0533574 -0.211217 0.479749 0.135457 0.170952 0.169623 -0.260333 -0.6209 -0.0394952 0.0370709 0.21481 -0.792828 -0.191536 0.522193 -0.313296 0.283368 -0.0629128 0.196798 -0.342297 0.240795 0.335944 0.262107 0.674416 0.246423 0.0441994 0.462644 -0.205469 -0.382709 -0.212981 -0.180081 0.0682088 -0.434692 0.0654311 -0.227717 -0.0879052 0.0490862 -0.0953667 -0.457241 0.023571 -0.089374 0.0114578 0.255842 -0.326623 0.0250968 0.240857 0.197279 0.164651 -0.098493 -0.17399 0.0283252 -0.0951304 -0.258655 0.027561 -0.00278112 -0.272707 0.327889 0.308701 -0.03257
437 -0.129578 0.119174 -0.0101207 0.0208948 -0.0641934 0.0563868 -0.0668576 -0.056073 -0.0264885 0.0322755 -0.00749645 0.00913955 0.0240702 -0.0394157 0.0206534 -0.060624 0.144458 -0.012094 0.00387025 0.0165188 0.0324281 0.0181146 0.0454489 0.0146385 0.0305708 0.116704 -0.0197435 0.0247156 -0.0188922 0.0381702 -0.00662657 0.0151271 -0.0838044 -0.00294848 -0.175682 0.108153 0.0240845 -0.0252751 0.0953615 0.0576873 0.0117865 0.0501182 -0.0469164 -0.0227849 0.059146 -0.047849 0.188518 0.146018 0.0569079 -0.155448 0.105628 -0.418673 -0.0498378 0.0274516 0.155156 -0.0642974 0.0939475 -0.078545 -0.0936026 -0.0718576 0.0263507 0.0025403 0.0808251 0.141879 0.00615448 0.00652133 -0.0203214 -0.212306 0.0482158 0.116139 -0.124605 0.0699321 0.286902 -0.0949765 -0.00614095 -0.064908 0.0688657 -0.16035 0.0818137 -0.0220171 -0.0223893 -0.302807 -0.163558 -0.294956 -0.148603 -0.045578 0.0258509 0.104875 0.250373 -0.305029 0.0104276 -0.372045 0.361215 0.233929 -0.186136 -0.0674112 0.0623191 -0.440217 0.087763 -0.0787691 0.0535694 0.111631 -0.160147 -0.0720969 0.258057 -0.0689724 0.342443 -0.0960662 -0.06595 0.0779925 0.326629 -0.165777 -0.43993 -0.435747 0.493804 -0.258863 0.446671 0.0254718 0.215109 -0.435893 -0.0185747 -0.130876 0.00641971 0.465595 0.007652 -0.161081 0.457376 0.143396 0.134606 0.115599 -0.221678 -0.581474 -0.0196563 0.0398247 0.120187 -0.601465 -0.147483 0.411474 -0.335696 0.259975 -0.0688158 0.113487 -0.254675 0.291239 0.273865 0.177894 0.728301 0.256916 -0.0109101 0.603405 -0.239536 -0.438576 -0.268635 -0.18441 0.129246 -0.40152 0.122591 -0.180271 -0.0774314 0.0549309 -0.0680326 -0.366976 0.0667291 -0.0802834 0.0556392 0.311271 -0.297672 0.0198082 0.272011 0.161607 0.12839 -0.0743874 -0.0796546 0.0308323 -0.0457143 -0.13542 -0.00306831 0.0331392 -0.142573 0.212235 0.21774 0.0109857
922 -0.0649822 0.0776667 0.0430325 -0.0529856 0.0578079 -0.089995 -0.170383 0.0571988 -0.00281739 0.0232714 -0.0501636 -0.00579802 0.0828394 0.0736989 -0.0755602 -0.0101409 -0.235403 0.036004 -0.0600292 0.153024 -0.114206 -0.119642 0.177738 -0.165306 -0.00599915 0.138842 0.0751256 0.0321931 0.105444 0.0211359 0.201882 -0.048024 0.106269 -0.031572 -0.0735601 0.141859 -0.0108652 0.00781451 0.0265559 0.0594013 0.0136804 0.0604113 -0.0270655 0.0424633 0.0613999 0.0600752 0.0946226 0.13773 0.0185313 -0.10753 0.0100285 -0.164608 0.0343925 0.0208363 0.125847 -0.1673 0.18422 -0.101856 -0.138138 -0.0483151 0.287087 -0.186154 0.0941423 0.115496 0.122127 0.0185166 -0.125137 -0.137073 -0.025667 0.015803 -0.128652 0.0309173 0.0930657 -0.0394542 0.00511603 -0.060633 0.127769 -0.0802621 0.0787145 0.0355863 0.0500469 -0.131682 0.019579 -0.0415893 -0.0804488 0.0511206 -0.0032914 0.0979935 0.0928064 -0.0519903 -0.0354715 -0.251413 0.338627 0.182887 -0.131864 -0.0799194 -0.0130657 -0.27116 -0.0757748 -0.136916 -0.0175327 0.0847967 -0.168828 -0.0020858 0.118361 -0.0613865 0.421356 -0.150351 -0.0508186 -0.00675288 0.433134 -0.233575 -0.675606 -0.599182 0.43734 -0.243565 0.395637 0.0472852 0.35305 -0.602233 -0.0195553 -0.142871 -0.0936318 0.70838 -0.0221178 -0.22093 0.459551 0.165393 0.304007 0.0210533 -0.219241 -0.512235 -0.019625 0.0465931 0.0835481 -0.778254 -0.180898 0.304068 -0.340161 0.234122 -0.112289 0.0936304 -0.103452 0.247534 0.426924 0.315979 0.425311 0.104108 -0.0415852 0.516492 -0.381329 -0.613101 -0.270033 -0.083306 0.172493 -0.251488 0.10296 -0.0503332 -0.126409 0.0677049 -0.0172476 -0.421775 0.106458 -0.0394558 0.151571 0.24512 -0.249107 0.0373549 0.347413 0.0613967 0.0758407 -0.0972609 -0.197374 0.161006 -0.0768708 -0.128511 -0.0657536 -0.103421 -0.279628 0.23996 0.290665 0.01832
978 0.0895541 -0.0564132 0.0794872 -0.0114764 0.026485 0.0570824 -0.0982634 0.00882883 -0.0127946 0.0685312 0.023245 0.00507039 0.00140618 0.0686557 0.019652 0.0375296 -0.0460841 0.0477701 -0.0396893 0.079618 0.0183995 -0.0358928 0.0207579 -0.0320531 -0.0610583 0.123552 0.0422606 0.0347518 0.0945939 0.0480611 0.338749 -0.00815128 0.118981 0.04663 -0.0446846 0.0413614 0.046285 0.0600601 0.0419938 0.0110661 -0.0361359 0.0596672 0.0418292 0.0297062 -0.0141712 -0.0310457 0.201369 0.186592 -0.013335 -0.205974 0.0200457 -0.0486958 -0.00648636 0.0707092 -0.00634481 -0.108117 0.199717 -0.159728 -0.0287501 -0.0337077 0.0830213 -0.124086 0.150765 0.107111 0.196124 -0.044136 -0.145839 -0.202891 0.0255176 0.110991 -0.147572 0.0917448 0.287988 -0.119931 0.00841112 -0.0247459 0.130759 -0.12686 0.210875 0.0873037 -0.0493051 -0.305555 -0.055467 -0.133242 -0.170643 0.00256334 0.064716 -0.0238323 0.208471 -0.160057 0.0389795 -0.336474 0.146748 0.137114 -0.195844 -0.139633 0.0295569 -0.266938 -0.0180476 -0.0794778 0.0929769 0.123127 -0.20401 -0.0650557 0.116926 -0.0104961 0.232778 -0.0667527 0.0142367 -0.0338616 0.205805 -0.180041 -0.437869 -0.41032 0.257354 -0.112076 0.36003 0.0536037 0.204435 -0.424227 0.014288 -0.216291 -0.0524512 0.514901 -0.046563 -0.14188 0.646904 0.177877 0.19123 -0.00632554 -0.187904 -0.377481 -0.0966698 0.109561 0.159549 -0.877356 -0.0580703 0.38262 -0.206607 0.130441 -0.0934425 0.0448632 -0.178485 0.31706 0.487221 0.272027 0.387887 0.163163 -0.0310235 0.560076 -0.407868 -0.626873 -0.302178 -0.176783 0.139297 -0.33481 0.100627 0.0166883 -0.234429 0.0593287 0.00205763 -0.584398 0.11207 -0.0200671 0.227291 0.26667 -0.364637 0.0279638 0.409803 0.0407418 0.0700539 -0.0728377 -0.0866609 0.150863 -0.0249974 -0.212986 -0.0377981 -0.121892 -0.3064 0.227959 0.326387 0.0751345
1005 0.162909 -0.254688 0.0877066 0.0134657 0.0575671 -0.0552595 0.113876 -0.00121087 -0.0721995 0.13732 0.132843 -0.124647 0.0205727 0.165926 0.0457364 0.00928013 -0.079818 0.0646459 -0.0771139 0.134883 -0.0625428 -0.0579 -0.0657886 0.036569 0.0903269 -0.10787 -0.0457805 -0.0608551 -0.015791 -0.00376193 0.183967 0.0375703 0.064768 0.113503 -0.265813 0.358836 0.0136593 -0.0773279 -0.0169209 0.00152556 -0.0551967 0.0428101 -0.108238 0.00921941 0.0208716 -0.00487046 0.173449 0.169065 0.0142048 -0.259624 0.137366 -0.347267 0.0329014 0.00133336 -0.0244145 0.00503105 0.0282913 -0.0588485 -0.062519 -0.0847401 0.137717 -0.112615 0.0698552 0.050907 0.0896594 -0.00733706 -0.149144 -0.248831 0.00373076 -0.0009787 -0.125145 0.0893661 0.239424 -0.119748 0.0365428 -0.0521087 0.144292 -0.0873177 0.152984 -0.0145056 -0.0324512 -0.3842 -0.0850225 -0.340042 -0.146711 -0.04823 0.0694536 0.0274461 0.208698 -0.201477 -0.0295391 -0.366965 0.249422 0.153916 -0.137634 -0.0643752 0.000290739 -0.269286 0.0885658 -0.0407534 0.0665202 0.0643491 -0.148449 -0.0794538 0.136972 -0.0634288 0.291287 -0.153189 -0.052967 0.00379198 0.203811 -0.100341 -0.385229 -0.329158 0.356214 -0.19133 0.181651 0.0201057 0.161967 -0.299013 0.0207964 -0.180357 -0.12255 0.360424 -0.108077 -0.173691 0.55581 0.188649 0.173085 -0.000302341 -0.156679 -0.479368 -0.0264457 0.052927 0.147059 -0.86664 -0.118718 0.324433 -0.329999 0.18703 -0.153124 0.173945 -0.226796 0.291511 0.399925 0.171962 0.657826 0.248655 -0.0665679 0.46326 -0.362557 -0.494348 -0.272425 -0.0912397 0.0926177 -0.394833 0.121814 -0.0800567 -0.177184 -0.00826545 -0.101037 -0.445762 0.121295 -0.106453 0.114927 0.211385 -0.434535 0.0643498 0.389172 0.11253 0.162094 -0.129183 -0.130829 0.107173 -0.0180709 -0.164335 0.0187335 -0.0977887 -0.251282 0.225601 0.180017 0.0182306
831 0.120296 -0.206564 0.161622 -0.00216178 -0.0650293 0.0598316 -0.0488835 -0.00860002 0.0162876 0.0748788 0.0333017 -0.00880885 0.00912888 0.129481 0.0307717 -0.0469322 -0.0830191 0.019164 -0.00271169 -0.0159602 0.0352998 -0.0474268 -0.00226747 -0.000271448 0.0816096 0.0149621 0.0222423 0.0100837 -0.0164537 0.0578322 0.202653 0.00431058 0.205296 -0.0798885 -0.0164159 0.0270704 -0.0101663 -0.0399915 0.0376713 0.0159678 -0.00968417 0.162579 -0.120095 -0.0320521 0.0434003 0.0489598 0.230955 0.177646 0.0327836 -0.353279 0.0416493 -0.129266 0.00818883 0.0468979 0.056923 -0.0939443 0.137001 -0.113496 -0.154818 -0.1309 0.2187 -0.112546 0.145101 0.0791315 0.137602 -0.0567438 -0.0901392 -0.188283 0.0469955 0.108315 -0.127447 0.0730543 0.152348 -0.118605 0.0146159 -0.0521605 0.102222 -0.0815314 0.144079 0.0171617 -0.032837 -0.272047 -0.0305262 -0.0467431 -0.103869 0.0169648 0.0123154 0.0466216 0.18759 -0.173382 0.017865 -0.39355 0.300576 0.191639 -0.231335 -0.145993 0.0220763 -0.476205 0.0188947 -0.0736893 0.0850834 0.134095 -0.190502 -0.0256477 0.114465 -0.0226391 0.337041 -0.130184 -0.0430305 0.0162502 0.28144 -0.146566 -0.451415 -0.443681 0.253972 -0.149918 0.316303 0.0390314 0.220894 -0.399691 -0.0221295 -0.157761 -0.0819846 0.482165 -0.032513 -0.157416 0.597714 0.184326 0.228523 0.031451 -0.165794 -0.338819 -0.0721527 0.0583264 0.146209 -0.744398 -0.143129 0.348018 -0.334151 0.278074 -0.100034 0.0928251 -0.273329 0.328253 0.469485 0.289836 0.421296 0.162031 -0.0177125 0.555826 -0.271434 -0.442701 -0.237649 -0.128093 0.136009 -0.346947 0.105799 -0.0964839 -0.165643 0.0732424 -0.11355 -0.501165 0.0645072 -0.0397768 0.144664 0.285453 -0.406642 0.0175706 0.409741 0.108603 0.134696 -0.0910859 -0.157369 0.0855357 -0.0662043 -0.245788 -0.0307252 -0.0788426 -0.252736 0.21156 0.160133 0.000666812
606 -0.0157846 -0.026778 -0.0119141 -0.00651961 -0.0595161 0.044257 -0.0627384 -0.021516 -5.51871e-05 -0.0722067 -0.0933203 0.0579226 -0.00958432 -0.0744619 -0.0230826 -0.0334905 0.080611 -0.0367927 -0.0015482 0.0608545 -0.0981003 0.0337245 0.157996 -0.0275953 0.0204091 0.114767 0.021568 0.033705 0.0215974 0.00199852 -0.144936 0.0156695 0.0432041 -0.111004 -0.0732288 0.00508718 0.00235044 0.0653353 0.0870347 0.0934567 -0.0223033 0.222408 -0.064547 -0.0411421 0.071154 0.0644219 0.0607783 0.0328308 0.0673992 -0.147338 0.0798478 -0.302475 -0.042782 0.0248953 0.130146 -0.0938202 0.0832497 -0.100541 -0.0938948 -0.0448785 0.21817 -0.00673266 0.0486585 0.0546556 0.0560029 -0.00307484 -0.0179202 -0.188217 0.0566589 0.171155 -0.160622 0.0613182 0.160177 -0.0740565 0.0169752 -0.0718327 0.0492959 -0.216178 0.000730523 -0.0113439 -0.0229233 -0.204826 -0.124704 -0.168469 -0.108816 -0.0240696 0.032576 0.126228 0.25311 -0.23389 0.0336558 -0.339327 0.581282 0.350043 -0.111673 -0.0322456 0.055145 -0.3523 0.0592398 -0.0759317 0.123177 0.108274 -0.192291 -0.0637363 0.235991 -0.0260676 0.310953 -0.0961406 -0.0844986 0.125382 0.26049 -0.161219 -0.379967 -0.383999 0.337933 -0.185044 0.369866 0.0494986 0.134838 -0.315046 -0.0219579 -0.127453 0.0593321 0.410873 -0.0524884 -0.268798 0.350321 0.140163 0.143039 0.100758 -0.241542 -0.46946 -0.0306711 0.0540345 0.146608 -0.643796 -0.0907101 0.421974 -0.277124 0.232195 -0.0885956 0.180168 -0.175622 0.158344 0.356328 0.211208 0.570952 0.212557 0.0104055 0.477728 -0.25007 -0.405736 -0.243128 -0.187283 0.138579 -0.49807 0.113453 -0.200261 -0.0805329 0.00876986 -0.0799866 -0.457059 0.12005 -0.0931856 0.0955302 0.313074 -0.372952 0.0395385 0.373048 0.188526 0.199476 -0.135306 -0.230719 0.135115 -0.105972 -0.215415 0.0238084 -0.0431745 -0.341043 0.352442 0.334719 0.0083782
447 0.0844342 -0.14344 -0.00330877 0.00770739 -0.101122 0.116172 -0.0187665 -0.0303708 -0.00560937 -0.0750283 -0.0911128 0.0455188 -0.00407372 -0.185904 0.00157641 -0.0121408 0.107434 -0.0565255 0.00889621 0.0139751 0.00960417 0.0573197 0.097402 -0.00209778 0.0332398 0.0363048 -0.0473848 0.0420225 -0.120763 -0.0244687 -0.20249 -0.00162364 -0.0365351 -0.103478 -0.0187924 -0.0603503 0.00736631 -0.00301221 0.0083008 0.000750607 -0.0194797 0.158336 -0.133772 -0.0247805 0.0714578 0.123047 0.298059 0.117117 0.0995527 -0.280046 0.0967278 -0.443513 -0.0829131 0.0304305 0.170829 -0.115554 0.201673 -0.236132 -0.177965 -0.127426 0.22126 0.0218537 0.191647 0.0968793 0.0809859 -0.0610279 0.0476439 -0.188626 0.0783752 0.137366 -0.133038 0.0117788 0.277422 -0.150802 0.0158278 -0.0924429 0.0644086 -0.298922 0.0669764 0.00763098 -0.0518153 -0.236084 -0.153857 -0.182709 -0.130288 -0.0395644 -0.00168065 0.123492 0.231497 -0.311426 0.0444883 -0.344872 0.517275 0.289953 -0.169685 -0.0506882 0.0442825 -0.329977 0.061301 -0.0488601 0.0448372 0.104916 -0.161658 -0.0128018 0.226922 -0.0349148 0.27724 -0.0696304 -0.0753986 0.105949 0.231427 -0.137758 -0.28766 -0.296364 0.343345 -0.209593 0.323447 0.0642382 0.0807542 -0.230905 -0.0112358 -0.0859945 0.0494033 0.415683 -0.0191109 -0.197746 0.395717 0.148821 0.161157 0.141213 -0.27992 -0.624103 -0.0305644 0.021153 0.152265 -0.535435 -0.162177 0.564022 -0.361619 0.317326 -0.13947 0.269546 -0.377786 0.340968 0.452714 0.273906 0.699455 0.281163 -0.00102489 0.630276 -0.316519 -0.442549 -0.246835 -0.192044 0.104773 -0.438964 0.113903 -0.240979 -0.0986035 0.0113247 -0.0933979 -0.41577 0.0958826 -0.0970167 0.0567049 0.247244 -0.301984 0.0445118 0.260578 0.225609 0.208546 -0.112078 -0.198426 0.0726897 -0.119764 -0.234263 0.0552106 0.0340982 -0.203527 0.235729 0.250825 0.00123684
468 -0.0745825 0.0742327 -0.0220303 0.0161705 -0.102998 0.119908 -0.0199732 -0.053889 -0.0154974 0.0717228 -0.0168403 0.0465341 -0.0188167 0.00314922 0.0135623 -0.014424 0.137804 -0.0583143 0.0203481 0.043861 -0.0554542 0.0557049 0.10297 -0.00549426 -0.0395577 0.252057 0.0310512 0.0744241 0.0245721 0.0384198 -0.11331 0.0208677 -0.0167951 -0.087574 -0.14545 0.13176 -0.027776 0.0646459 -0.00131911 -0.0226929 0.00946492 0.109487 -0.108038 -0.00860249 0.0468003 0.0463501 0.130921 0.0655624 0.0270796 -0.11234 0.125472 -0.381296 -0.0599314 0.0290355 0.0564115 -0.00681746 0.0997928 -0.118826 -0.112677 -0.0817356 0.110134 0.0240092 0.103241 0.0707347 0.0692435 -0.026641 0.00298871 -0.208454 0.066078 0.196316 -0.0899372 0.0461296 0.108606 -0.0821586 0.0073964 -0.0679798 -3.52593e-05 -0.143265 0.0746757 -0.00208434 -0.0132938 -0.187119 -0.171813 -0.242876 -0.10453 -0.0107244 -0.004698 0.0709508 0.213268 -0.170029 0.0532377 -0.271384 0.494008 0.319731 -0.22293 -0.0779861 0.0601759 -0.46913 0.122107 -0.0986099 0.160995 0.137873 -0.161156 -0.057904 0.236545 -0.0612032 0.325905 -0.129465 -0.0914185 0.0930236 0.296915 -0.163898 -0.40641 -0.410256 0.403738 -0.207251 0.321569 0.0527654 0.0980926 -0.223122 0.000484893 -0.0836557 0.0436971 0.397744 -0.0635257 -0.191223 0.470813 0.183157 0.199714 0.0849323 -0.32506 -0.66618 -0.0284661 0.0726657 0.14237 -0.72609 -0.178543 0.554497 -0.336258 0.264706 -0.116879 0.192058 -0.336968 0.328207 0.399349 0.20725 0.703847 0.266104 0.0219947 0.615317 -0.298207 -0.420941 -0.253688 -0.169881 0.0818994 -0.422549 0.0882116 -0.15167 -0.123573 0.0653972 -0.0838521 -0.424603 0.104853 -0.0646848 0.0888444 0.276187 -0.217683 0.0117901 0.258594 0.2055 0.132914 -0.0379764 -0.148767 0.0610215 -0.111393 -0.19603 0.0490898 -0.00153551 -0.264723 0.268165 0.204619 0.00386074
416 -0.0772467 0.0508984 -0.0434626 0.0138423 -0.0696157 0.0853688 0.0308248 -0.0398574 0.0236193 -0.0110508 -0.0672818 0.0350306 -0.0185069 -0.108754 0.0627352 -0.0273495 0.0990245 -0.035692 0.0160441 0.0596961 -0.00921544 0.099019 0.0787702 0.0366685 -0.0251714 0.256798 0.00260623 0.0320088 -0.0225552 0.0370229 -0.0681022 0.0291775 -0.0540364 -0.0212725 -0.105969 0.0648216 -0.0196616 0.104167 0.0374193 0.0173015 0.0358024 0.0699216 -0.0433758 -0.0265123 0.0343146 0.071698 0.160692 0.0116136 -0.000654536 -0.120803 0.130061 -0.368962 -0.124019 0.0109367 0.123687 -0.114069 0.164871 -0.164781 -0.158359 -0.0925319 0.0415871 0.0845886 0.164955 0.0726007 0.0822439 -0.0544434 0.0154417 -0.22997 0.10351 0.230561 -0.178173 0.0607878 0.159146 -0.0609196 0.0244695 -0.0594394 -0.00795976 -0.205917 0.118621 -0.0050366 -0.0351973 -0.241493 -0.188005 -0.275136 -0.210662 -0.0440057 0.0296656 0.0963138 0.331745 -0.331584 0.0633619 -0.411943 0.530139 0.328202 -0.256106 -0.101923 0.0535898 -0.414842 0.113447 -0.118157 0.217669 0.128148 -0.165369 -0.0797854 0.255876 -0.0612194 0.35753 -0.0904804 -0.114686 0.135722 0.327977 -0.197931 -0.352101 -0.383096 0.367121 -0.210757 0.413757 0.0747072 0.0776604 -0.2241 -0.0183622 -0.119445 0.0393975 0.45692 -0.0784483 -0.228434 0.415522 0.166045 0.120016 0.0999881 -0.23064 -0.593932 -0.0308153 0.0509938 0.14699 -0.626382 -0.167885 0.458121 -0.393939 0.323687 -0.0991917 0.198767 -0.256415 0.216894 0.28236 0.168656 0.613354 0.244609 0.0402429 0.648876 -0.247268 -0.376298 -0.206174 -0.176768 0.0819759 -0.534889 0.0987585 -0.18703 -0.0986902 0.0113825 -0.0694902 -0.46537 0.108207 -0.0642641 0.0746217 0.294357 -0.280084 0.0412775 0.285099 0.220316 0.252679 -0.150949 -0.20547 0.0889346 -0.119886 -0.291337 0.0699708 -0.0246661 -0.276094 0.248637 0.36416 -0.0086645
342 -0.05648 -0.0203235 0.0861076 -0.0166777 -0.0907337 0.0863155 -0.141804 -0.0596636 -0.0224286 0.087037 -0.101905 0.0782841 -0.0227192 -0.0321169 0.0295132 -0.106896 -0.0863783 -0.0147894 -0.0311523 0.125016 -0.120629 0.00512069 0.0813625 -0.0435333 0.0437702 0.261725 0.118023 0.0614858 -0.0407104 0.0619438 -0.0892773 0.0207054 0.0548673 -0.0733036 -0.139014 0.100166 0.0299816 -0.057607 0.023138 -0.00392815 0.0104207 0.106016 -0.0779682 -0.0179113 0.130165 0.121017 0.135782 0.125608 0.047233 -0.216602 0.0418788 -0.257213 -0.0495209 0.0287917 0.119145 -0.034283 0.0884777 -0.100564 -0.139379 -0.0450602 0.122135 -0.0282595 0.129739 0.100322 0.149016 -0.0280479 0.0192123 -0.278732 0.120788 0.183644 -0.161156 0.0452402 0.206414 -0.137619 -0.0424059 -0.0722231 0.112201 -0.223233 0.0800994 -0.0332218 0.0148629 -0.319785 -0.186813 -0.253678 -0.151189 -0.0450297 0.00477382 0.0941114 0.205549 -0.190113 -0.0244734 -0.177229 0.4746 0.302013 -0.0997807 -0.0343074 0.0562552 -0.417932 0.099021 -0.143247 0.176752 0.197157 -0.211263 -0.0110387 0.249312 -0.0637663 0.382914 -0.136182 -0.142892 0.137773 0.421831 -0.18082 -0.475514 -0.497183 0.41197 -0.248346 0.434872 0.0741367 0.186292 -0.355354 -0.00929327 -0.0668046 -0.0131855 0.425651 -0.0513421 -0.255306 0.409979 0.122502 0.14983 0.117513 -0.289926 -0.612925 -0.0237923 0.0442769 0.214591 -0.745011 -0.190903 0.513379 -0.358477 0.34406 -0.10907 0.199313 -0.265481 0.225778 0.329044 0.21409 0.678892 0.235079 0.0144155 0.623752 -0.273548 -0.491853 -0.289027 -0.252322 0.131966 -0.423548 0.0817936 -0.170654 -0.025555 0.0663799 -0.0916468 -0.442389 0.0679306 -0.106885 0.0420994 0.289517 -0.241388 0.0093137 0.314208 0.171092 0.196371 -0.141899 -0.222273 0.0535435 -0.126161 -0.213282 -0.00686925 0.00540233 -0.223128 0.257135 0.271051 -0.0216489
908 0.225015 -0.282115 0.00190737 -0.0436444 0.0266852 0.0619739 -0.0813195 0.0179278 -0.0319799 0.115685 0.0555491 0.0103704 -0.0294481 0.211569 -0.0612046 -0.013562 0.0258093 -0.0751105 -0.0131955 0.06534 -0.159406 -0.0484534 -0.001101 -0.0308921 0.0261875 -0.238284 -0.0463438 -0.0118418 0.00868817 -0.0604469 0.033284 -0.0595911 0.0148947 -0.0821784 0.00296227 0.0123244 -0.0704361 0.12036 -0.00996581 0.0790306 -0.0664831 0.126345 -0.0565888 0.104481 -0.0131965 0.0799121 0.263871 0.258387 -0.0593126 -0.0896211 0.00712141 -0.0801946 0.0716773 0.0134683 -0.0163524 -0.0144239 0.154028 -0.142716 -0.115652 -0.15774 0.37066 -0.149526 0.148745 0.0435149 0.0461814 -0.010155 0.00239655 -0.21391 0.0909167 0.0889478 -0.0675947 -0.0472046 0.315381 -0.265902 -0.0016748 -0.0408929 0.148142 -0.184838 0.203843 -0.000540382 0.0186587 -0.388002 -0.0905653 -0.253468 -0.238593 -0.0294788 0.00202553 0.114543 0.160229 -0.14356 0.0531157 -0.387345 0.332275 0.150403 -0.0987703 -0.0897939 -0.0961188 -0.274606 0.0327912 0.00444027 0.0838778 0.15724 -0.208731 -0.0327672 0.21128 -0.172171 0.494631 -0.25703 -0.0676652 0.0403999 0.295889 -0.129802 -0.420711 -0.238626 0.24769 -0.13619 0.35444 0.0482156 0.247126 -0.381464 0.00505939 -0.099753 -0.202482 0.462995 -0.0783746 -0.273434 0.581927 0.253387 0.174453 -0.00972194 -0.188659 -0.347707 0.031352 0.0233803 0.0949395 -0.60522 -0.1162 0.333337 -0.196269 0.146375 -0.246979 0.276596 -0.259042 0.415004 0.371534 0.182628 0.308188 0.117812 -0.136092 0.455177 -0.384992 -0.447114 -0.233745 -0.085938 0.110613 -0.18582 0.133873 -0.0652971 -0.155718 0.0133884 -0.10638 -0.203669 0.0978133 -0.0965174 0.215014 0.342022 -0.488325 0.0222899 0.488152 0.112281 0.220082 -0.11127 -0.196984 0.146937 -0.102173 -0.225597 0.00478154 -0.046884 -0.323783 0.233311 0.197091 -0.0321612
1018 -0.122195 0.0426858 0.0154398 0.0331164 0.0277571 -0.0525715 -0.0936792 -0.0393135 -0.00479797 -0.0495799 0.0206161 0.0102288 0.0115264 0.117815 -0.00618595 -0.0774627 -0.124738 -0.0107553 -0.0108925 0.0887371 -0.130655 -0.095334 0.0597225 -0.0468142 0.0871045 0.0332888 0.0416286 0.0155516 0.0753927 0.0107181 0.107677 0.0393568 0.116818 -0.0765489 -0.0625435 0.149168 -0.0103968 0.0243285 0.0081092 0.0104935 -0.0563009 0.0655531 -0.158647 0.0215405 0.054076 0.0903606 0.249521 0.246321 0.0208831 -0.174832 0.0511884 -0.138634 -0.022291 0.0208838 0.0554882 -0.0378999 0.166355 -0.227176 -0.190318 -0.181355 0.370232 -0.14113 0.168235 0.0783157 0.10959 -0.0374654 0.00493999 -0.180375 0.0588557 0.0934494 -0.0911863 0.0396637 0.231493 -0.145021 0.0130345 -0.0858317 0.128985 -0.162451 0.194676 -0.00549107 -0.037585 -0.503002 -0.139817 -0.267127 -0.197612 -0.0551775 0.00275049 0.111751 0.183151 -0.110329 0.0209444 -0.535878 0.594111 0.321673 -0.217219 -0.0950982 -0.0189586 -0.477757 0.0840597 -0.0779126 0.0871582 0.174387 -0.168059 -0.0389672 0.144436 -0.124295 0.453855 -0.236698 -0.0837596 0.0291657 0.283356 -0.136413 -0.390658 -0.362388 0.26042 -0.0988178 0.234436 0.0160212 0.152504 -0.230781 0.03313 -0.0873411 -0.0907841 0.484179 -0.0482987 -0.274457 0.404756 0.141447 0.176567 0.0501013 -0.145354 -0.324517 0.0205422 0.00993379 0.131169 -0.688064 -0.172047 0.326995 -0.311032 0.309883 -0.214181 0.201829 -0.284892 0.316063 0.351267 0.181374 0.390308 0.153772 -0.0245369 0.533082 -0.331633 -0.489291 -0.238021 -0.124956 0.205978 -0.502969 0.184325 -0.148341 -0.183154 0.142046 -0.0524188 -0.441353 0.0486374 -0.0540503 0.128354 0.267122 -0.386762 0.00458392 0.541532 0.148002 0.214796 -0.188342 -0.215191 0.130408 0.00264455 -0.285348 -0.0729788 -0.0799662 -0.369722 0.220282 0.241624 -0.0440631
682 0.0424942 -0.0932394 0.038759 -0.0404755 -0.0152754 -0.00539271 -0.00271849 0.0108533 -0.0307436 0.056156 0.0740853 -0.0393442 0.0204726 0.201028 -0.0147873 -0.0166924 -0.0890351 0.0680515 -0.0428064 0.0354912 -0.1157 -0.104583 -0.00411939 0.00402007 -0.0102112 0.00770272 0.0100672 -0.0513491 0.118902 0.0651287 0.177195 -0.00926097 0.0910856 0.00626476 0.0304435 0.0609898 -0.0252806 0.0614497 0.0293209 0.0263978 -0.0515617 0.150303 0.00660843 -0.00115365 0.0389035 0.0427388 0.17157 0.122667 0.0411312 -0.0972645 0.0257475 -0.0979823 0.0108508 0.0464412 0.050232 -0.0995965 0.155722 -0.15606 -0.0173112 -0.0261454 0.27814 -0.139983 0.134216 0.117928 0.0890346 -0.0143903 -0.123028 -0.113843 0.014651 0.115547 -0.0567355 0.0338321 0.179278 -0.171844 0.0118018 -0.00259573 0.173971 -0.118829 0.11436 0.062622 -0.0169117 -0.344054 -0.0937871 -0.198885 -0.171253 -0.0427942 0.0147963 0.0342893 0.165341 -0.0736314 0.0368241 -0.400636 0.509164 0.325466 -0.213245 -0.0799561 -0.0207974 -0.308209 0.00601118 -0.0600143 0.0748793 0.126081 -0.151874 -0.0713977 0.148391 -0.096775 0.301499 -0.172968 -0.0246051 -0.0357484 0.192175 -0.14294 -0.509911 -0.483259 0.367513 -0.129478 0.335077 0.0263416 0.320734 -0.416394 -0.0136397 -0.149262 -0.0815498 0.604458 -0.00836958 -0.167903 0.427302 0.17262 0.207886 0.00188477 -0.189029 -0.377261 -0.0403273 0.0799983 0.0633276 -0.572995 -0.0719551 0.303345 -0.256008 0.20227 -0.125583 0.0817498 -0.186494 0.249207 0.568645 0.345709 0.60617 0.206303 -0.0495133 0.590353 -0.308117 -0.511693 -0.382844 -0.139447 0.14483 -0.386586 0.207171 -0.0741841 -0.202334 0.120583 -0.00745469 -0.582626 0.100526 -0.037106 0.163285 0.316959 -0.336603 -0.0200039 0.480986 0.0306324 0.049607 -0.0787417 -0.18437 0.100929 0.0220557 -0.137703 0.00770534 -0.0964727 -0.267609 0.261848 0.192127 0.0170356
668 0.00812209 0.105417 0.0824199 -0.00490086 0.00298115 -0.00899187 0.0156619 0.0505031 -0.0384718 -0.0448668 0.0244368 -0.0504239 -0.0887078 0.0256961 0.0149136 0.0221284 -0.0818733 0.0328344 -0.0297561 -0.0678145 -0.0468576 -0.081402 -0.0869493 0.0219261 -0.0841487 -0.0307187 -0.0133608 -0.0441917 0.0205669 -0.030598 0.22307 -0.0681144 0.156352 -0.0568742 -0.0982857 0.113217 0.0236465 0.113402 0.0636837 0.145605 -0.0612037 0.236104 -0.0845454 -0.0278974 0.0501507 0.057975 0.192815 0.187855 0.0236323 -0.161418 -0.00146113 0.0159379 0.0511142 0.00888561 0.036789 -0.0683422 0.173184 -0.0772331 0.0577166 -0.0120817 0.319644 -0.255071 0.0760836 0.0701657 0.151583 -0.0575076 -0.173161 -0.192558 0.0082402 0.0512242 -0.0646779 0.0214265 0.248091 -0.183307 0.0239251 -0.0279729 0.182358 -0.168778 0.160143 0.0836284 -0.0125658 -0.302442 -0.0111046 -0.0718899 -0.0454374 -0.00200424 0.037312 0.0204213 0.176351 -0.147366 0.081241 -0.291759 0.552969 0.349893 -0.247786 -0.134386 0.0613675 -0.242255 -0.0439549 -0.00419299 0.0575413 0.0494279 -0.124018 0.0219436 0.10325 -0.0485444 0.296159 -0.150203 0.0077361 0.00867762 0.222261 -0.211525 -0.533228 -0.497213 0.370651 -0.206567 0.371253 0.0985878 0.260656 -0.378498 0.021422 -0.141063 -0.059205 0.40366 -0.0611681 -0.186096 0.581194 0.178624 0.260775 0.0382862 -0.242816 -0.490971 -0.0852965 0.0373692 0.14473 -0.756141 -0.154884 0.429792 -0.200728 0.0917965 -0.0282896 0.0423629 -0.178376 0.273685 0.590681 0.324815 0.558123 0.19464 -0.0293493 0.385853 -0.216323 -0.330689 -0.243189 -0.100953 0.014539 -0.127812 0.0218698 -0.0314553 -0.170402 0.0268216 -0.033924 -0.631601 0.12062 -0.042795 0.174848 0.214656 -0.342539 -0.00698391 0.428618 0.0948768 0.145597 -0.0377924 -0.143732 0.129542 -0.0456732 -0.188661 -0.0233588 -0.0855726 -0.375538 0.290147 0.112147 0.0311309
301 0.18337 -0.0818947 0.0421384 -0.0802819 -0.0104264 0.135843 0.109054 0.0722721 0.00441157 -0.0252247 0.0128812 -0.0614416 0.0305429 0.0738154 -0.039131 0.167947 0.0204551 0.0280601 -0.0218003 0.129906 -0.0999294 0.00132185 0.104272 0.0195336 -0.204394 0.283954 -0.0412407 0.0644588 0.103222 -0.0199946 0.122293 -0.115042 0.137251 -0.150719 -0.0562848 0.180916 -0.0465131 0.254232 0.0712219 0.205524 -0.0296512 0.119565 0.00171487 0.0500683 -0.166741 -0.0335664 0.230525 0.0105637 -0.0382598 -0.0601845 0.115928 -0.257266 -0.113477 0.00431194 -0.0421856 -0.104171 0.161322 -0.152429 -0.0404928 -0.0719022 0.103502 0.0741818 0.123947 0.00510345 0.0381081 -0.19404 -0.0534044 -0.0558746 0.0379924 0.0391745 -0.149754 -0.0640613 -0.0656436 -0.138904 0.0415209 -0.0415582 -0.0736236 -0.084215 0.213371 0.112632 -0.0215137 -0.0472127 -0.0953674 -0.242421 -0.122875 -0.028839 0.0628962 0.156662 0.324956 -0.376898 0.15129 -0.559625 0.39319 0.161142 -0.29911 -0.260113 -0.017282 -0.495845 0.0571216 -0.0331595 0.274706 -0.040147 -0.360183 -0.199573 0.342657 -0.145097 0.400911 -0.0762838 -0.0147405 0.0662214 0.304673 -0.325873 -0.510164 -0.452822 0.382097 -0.212002 0.35445 0.0710464 0.119604 -0.25085 0.0369097 -0.270205 -0.0448795 0.30431 -0.184302 -0.159783 0.635096 0.296403 0.187782 -0.0325394 -0.206927 -0.398427 -0.0461125 0.0808266 0.145344 -0.789031 -0.107419 0.487062 -0.15683 0.0396672 -0.00919631 0.160981 -0.261523 0.267876 0.446613 0.213572 0.350691 0.252528 -0.00551535 0.448451 -0.408085 -0.355404 -0.246408 0.0347555 0.0200253 -0.291052 0.00600064 -0.0978764 -0.27129 -0.0624018 -0.115526 -0.389788 0.0892873 -0.150594 0.128035 0.0816085 -0.514636 0.102105 0.293753 0.290444 0.271587 0.0377821 -0.207882 0.217521 -0.143734 -0.2943 0.181317 -0.108417 -0.316059 0.183599 0.200038 0.0289787
427 0.0237298 -0.0439985 0.00654582 -0.0251907 -0.0674504 0.0393777 -0.112193 -0.0289542 -0.0366829 0.136872 -0.0320892 -0.00550827 0.00179157 -0.0200592 0.0542341 -0.0144966 0.124795 0.00182936 0.0175842 0.00925504 0.0421197 0.0836393 0.125496 -0.0269552 -0.0102128 0.277448 0.00244724 0.064547 -0.0218392 0.0338132 -0.0556232 -0.0285144 0.055236 -0.118239 -0.172595 0.133981 -0.00268252 -0.00407645 0.0938529 0.0916275 0.0104121 0.143787 -0.0714096 -0.0566393 0.0584926 0.0699068 0.0992587 -0.0137602 0.0679552 -0.153922 0.0921331 -0.298843 -0.0645549 0.0294139 0.180741 -0.105765 0.129792 -0.143175 -0.0985924 -0.0486162 0.0369936 0.110166 0.13979 0.1145 0.113792 -0.0633236 0.0208351 -0.198336 0.0660799 0.206575 -0.256044 0.123922 0.245541 -0.130595 0.0153504 -0.108768 0.0428673 -0.274555 0.0955834 -0.0190322 -0.0222151 -0.292954 -0.197312 -0.258817 -0.164648 -0.0489201 0.0741255 0.127014 0.265027 -0.317357 0.0239748 -0.310272 0.475534 0.33915 -0.210131 -0.07858 0.0767043 -0.454454 0.106124 -0.124478 0.146386 0.128596 -0.212783 -0.0822017 0.225741 -0.0405864 0.323425 -0.101099 -0.129784 0.133708 0.352114 -0.167606 -0.387138 -0.449384 0.376097 -0.165547 0.37861 0.0909619 0.151717 -0.350695 -0.0104459 -0.13731 0.0412214 0.434069 -0.075454 -0.205913 0.44918 0.18179 0.206183 0.163817 -0.213338 -0.559877 -0.015706 0.0244442 0.196124 -0.794827 -0.14608 0.399524 -0.312357 0.284656 -0.0687135 0.2035 -0.289794 0.221252 0.288327 0.228143 0.61018 0.198721 0.0548386 0.498284 -0.306738 -0.502674 -0.207994 -0.117187 0.0648057 -0.385339 0.0643706 -0.170794 -0.0496301 0.0283898 -0.0455029 -0.353872 0.0413452 -0.0945466 0.0238603 0.247913 -0.385492 0.0528876 0.305269 0.196107 0.191314 -0.115003 -0.223175 0.0994611 -0.121481 -0.280286 0.0365715 -0.0481467 -0.308099 0.32362 0.304767 -0.00379022
